~o
<STREAMINFO> 1 39
<VECSIZE> 39<NULLD><MFCC_E_D_A_Z><DIAGC>
~s "silst"
<NUMMIXES> 3
<MIXTURE> 1 4.863586e-01
<MEAN> 39
 -1.898430e+00 -3.859529e+00 1.648357e+00 3.582489e+00 4.119370e+00 3.866132e+00 2.326099e+00 2.462915e+00 3.546672e+00 2.778437e+00 2.532065e+00 1.575016e+00 1.401064e-01 -1.022328e+00 -7.831833e-01 -5.616022e-01 -2.965083e-01 -1.173783e-01 9.175173e-02 2.056407e-01 4.840091e-01 4.415946e-01 4.095710e-01 3.638290e-01 1.282917e-01 -7.610606e-02 3.701749e-01 4.249461e-01 2.278269e-01 1.052611e-01 -8.653290e-03 -1.291969e-01 -1.904348e-01 -2.225446e-01 -2.170474e-01 -2.276082e-01 -2.330098e-01 -1.352097e-01 2.593087e-02
<VARIANCE> 39
 1.474199e+01 4.455455e+01 3.135473e+01 3.678228e+01 3.432873e+01 3.695024e+01 3.713065e+01 4.289892e+01 3.934388e+01 3.646381e+01 3.801312e+01 2.800958e+01 2.487301e-02 9.189230e-01 1.535816e+00 1.806744e+00 2.251104e+00 2.663032e+00 2.925727e+00 3.143337e+00 3.301626e+00 3.326105e+00 2.936263e+00 2.830258e+00 2.683220e+00 2.592444e-03 1.437043e-01 2.189242e-01 2.907952e-01 3.360549e-01 4.364515e-01 4.859167e-01 5.127831e-01 5.682396e-01 5.767079e-01 5.423074e-01 5.178753e-01 4.744008e-01 3.558340e-04
<GCONST> 9.569469e+01
<MIXTURE> 2 2.400415e-01
<MEAN> 39
 -2.680024e+00 -1.829787e+00 3.849605e+00 5.178418e+00 5.213252e+00 4.978294e+00 4.006277e+00 3.093408e+00 3.476104e+00 2.765897e+00 1.943097e+00 1.670054e+00 1.486204e-01 1.152080e+00 1.148938e+00 1.426392e-01 -2.956703e-01 -6.256013e-01 -7.357753e-01 -7.289246e-01 -7.548600e-01 -5.042057e-01 -1.534185e-01 -3.173606e-01 -1.675768e-01 1.054878e-01 3.946820e-01 1.289784e-01 -3.397761e-01 -4.960105e-01 -4.609015e-01 -3.614046e-01 -3.389783e-01 -1.857206e-01 -2.545257e-01 -8.845226e-02 -4.508700e-02 2.301260e-02 3.053666e-02
<VARIANCE> 39
 2.247576e+01 5.015797e+01 3.801051e+01 3.689817e+01 3.665877e+01 4.712761e+01 3.695406e+01 4.963371e+01 3.754238e+01 4.203627e+01 3.878085e+01 2.743889e+01 4.009302e-02 3.002714e+00 4.471205e+00 3.594692e+00 3.527458e+00 3.586050e+00 4.065438e+00 4.297462e+00 4.174939e+00 3.813975e+00 3.665115e+00 3.684315e+00 2.808192e+00 8.291601e-03 4.987784e-01 7.042279e-01 5.341317e-01 5.899346e-01 6.032239e-01 7.668701e-01 6.755628e-01 7.303176e-01 7.770992e-01 7.526011e-01 7.382056e-01 5.111722e-01 1.096074e-03
<GCONST> 1.109171e+02
<MIXTURE> 3 2.735955e-01
<MEAN> 39
 -2.149920e+00 -3.271472e-01 2.567358e+00 3.290223e+00 3.158322e+00 4.192530e+00 1.386928e+00 3.177918e+00 3.517895e+00 1.676961e+00 1.970260e+00 1.015822e+00 -4.465454e-02 4.514578e-02 2.446171e-01 1.299320e-01 -4.758953e-02 -6.562812e-02 6.738012e-02 6.659485e-02 8.013923e-02 3.197798e-02 -2.325818e-02 -5.955156e-02 -2.415154e-02 -6.509254e-03 7.273996e-03 -1.680981e-03 2.567673e-02 3.004790e-02 1.067807e-02 2.418705e-02 2.878599e-02 -8.376652e-04 -2.673036e-03 1.757716e-02 1.153108e-02 1.233563e-02 5.876073e-03
<VARIANCE> 39
 9.467452e+00 3.801176e+01 1.956477e+01 2.277291e+01 2.449341e+01 2.584644e+01 2.464960e+01 3.216020e+01 1.973396e+01 2.349883e+01 2.351930e+01 1.816371e+01 9.332176e-03 2.643983e-01 6.203763e-01 6.572096e-01 9.304193e-01 1.184082e+00 1.272436e+00 1.421192e+00 1.563568e+00 1.516141e+00 1.610513e+00 1.448537e+00 1.347919e+00 2.401185e-04 6.540830e-02 1.130758e-01 1.264398e-01 1.764155e-01 2.526034e-01 2.811701e-01 2.940175e-01 3.248110e-01 3.295629e-01 3.029302e-01 2.917705e-01 2.649750e-01 9.010889e-05
<GCONST> 6.856510e+01
~h "#i"
<BEGINHMM>
<NUMSTATES> 16
<STATE> 2
<NUMMIXES> 2
<MIXTURE> 1 6.683410e-01
<MEAN> 39
 1.219267e-01 1.082642e+01 -1.087442e+00 -4.164661e+00 -3.177525e+00 -5.489487e+00 -1.860857e+00 1.615308e+00 7.963651e-01 6.094113e-01 1.109076e+00 5.753959e-02 7.387614e-01 -1.448163e-01 1.684829e+00 -5.542496e-01 9.670065e-01 -6.201299e-01 -4.903291e-01 -6.930935e-01 -4.909838e-01 -6.000258e-01 -2.316370e-01 5.965120e-02 2.333829e-01 3.779267e-03 6.230596e-02 -3.863823e-01 5.298473e-02 3.341927e-02 -2.873931e-01 2.375683e-01 -6.299394e-02 -1.205689e-01 -2.254462e-01 -1.386579e-01 -2.373511e-01 -7.146157e-02 6.516130e-03
<VARIANCE> 39
 1.309849e+01 2.720668e+01 2.804875e+01 4.016571e+01 2.314265e+01 2.903607e+01 5.116265e+01 3.592111e+01 4.193865e+01 4.852272e+01 5.319879e+01 5.159465e+01 1.615000e-02 7.040225e-01 2.046874e+00 1.624745e+00 2.347617e+00 2.062360e+00 3.803184e+00 2.818308e+00 3.206746e+00 3.446853e+00 4.170206e+00 4.111134e+00 3.906500e+00 6.751839e-04 1.314357e-01 3.490883e-01 2.707400e-01 5.847469e-01 4.422543e-01 6.756939e-01 5.159514e-01 5.381825e-01 5.876501e-01 6.369514e-01 6.143243e-01 7.055033e-01 7.722433e-05
<GCONST> 9.542141e+01
<MIXTURE> 2 3.316588e-01
<MEAN> 39
 2.453849e+00 1.045371e+01 -2.470076e+00 -2.807666e+00 -5.687844e+00 -3.921472e+00 -1.483612e+00 2.378306e+00 1.168443e+00 1.952346e+00 9.370182e-01 2.103293e+00 7.000989e-01 -2.716883e-01 2.124238e+00 -1.259304e+00 -1.534810e+00 -1.774373e+00 -1.858450e+00 -1.567801e+00 -1.169091e+00 -1.290905e+00 -9.665500e-01 -3.738570e-01 -1.098396e-01 1.298876e-01 -6.093910e-01 -9.808093e-01 4.267611e-01 5.250473e-01 7.386091e-01 7.635778e-01 2.696931e-01 6.660114e-02 5.107020e-02 -5.484035e-02 2.490899e-02 -9.111953e-02 -4.022775e-02
<VARIANCE> 39
 1.324528e+01 4.873755e+01 2.522911e+01 2.373269e+01 2.616634e+01 2.632588e+01 5.470878e+01 3.167085e+01 4.504900e+01 4.463371e+01 3.734895e+01 5.254784e+01 1.722580e-02 1.840357e+00 4.306675e+00 2.767415e+00 2.189939e+00 2.872306e+00 3.418500e+00 3.478270e+00 3.579067e+00 3.772819e+00 4.848387e+00 6.691687e+00 6.928180e+00 4.441288e-03 1.855976e-01 4.454462e-01 4.565500e-01 4.893175e-01 4.169386e-01 4.816037e-01 6.718413e-01 5.464390e-01 6.506584e-01 6.375384e-01 7.155582e-01 7.171974e-01 4.358172e-04
<GCONST> 1.037810e+02
<STATE> 3
<NUMMIXES> 2
<MIXTURE> 1 5.567875e-01
<MEAN> 39
 -6.575884e-01 1.206979e+01 -1.895676e+00 -3.217001e+00 -5.998521e+00 -5.241546e+00 -5.746998e+00 -2.318553e-01 -1.297101e+00 -2.085936e+00 1.336691e+00 -7.046996e-01 8.135012e-01 -7.002543e-01 6.505492e-01 -2.832308e-01 3.665693e-01 -3.530895e-01 -9.093563e-02 -7.058171e-01 -4.945433e-01 -6.464744e-01 -4.404082e-01 3.091321e-01 1.456326e-01 3.059283e-02 5.986389e-02 -4.727956e-01 2.501798e-01 1.648580e-01 2.890839e-01 3.600334e-01 3.393399e-01 1.845614e-01 2.458214e-01 2.713068e-01 -1.953228e-02 1.008752e-01 -1.340031e-02
<VARIANCE> 39
 1.348388e+01 3.928137e+01 2.578625e+01 2.211074e+01 2.386882e+01 3.124132e+01 4.815020e+01 3.006689e+01 3.709266e+01 4.252301e+01 4.873989e+01 5.455396e+01 8.875983e-03 8.215801e-01 1.389082e+00 1.116009e+00 1.650904e+00 1.450911e+00 1.695888e+00 1.724048e+00 2.816653e+00 2.350739e+00 2.932048e+00 4.325567e+00 4.737772e+00 7.510520e-04 1.408246e-01 2.723239e-01 2.723968e-01 3.713391e-01 3.924305e-01 4.274628e-01 3.661361e-01 3.827211e-01 3.738847e-01 4.313764e-01 5.217132e-01 5.981029e-01 3.931172e-04
<GCONST> 8.955924e+01
<MIXTURE> 2 4.432129e-01
<MEAN> 39
 1.568600e+00 1.378905e+01 -2.874797e+00 -9.903217e-01 -4.640980e+00 -4.379140e+00 4.752924e-01 1.117348e+00 -8.473014e-01 1.220661e+00 -2.672744e+00 4.635181e+00 7.695584e-01 -5.557868e-01 -9.984287e-02 -6.297271e-01 -2.610019e-01 -7.879308e-01 -7.794293e-01 -1.174444e+00 -9.447606e-01 -9.799366e-01 -1.102008e+00 -1.022605e+00 -4.279878e-01 3.097414e-02 -1.414158e-01 -2.844218e-01 -7.690171e-02 -1.029434e-01 -2.302963e-02 -1.820076e-01 -1.728253e-01 -1.812190e-01 -7.986747e-02 -1.425323e-01 -2.067929e-03 -2.022512e-01 -1.079110e-03
<VARIANCE> 39
 1.267738e+01 2.816595e+01 1.599384e+01 1.643867e+01 1.334809e+01 1.638544e+01 2.580108e+01 2.511984e+01 2.340435e+01 3.158790e+01 3.104260e+01 2.554093e+01 1.148855e-02 6.076773e-01 7.835091e-01 7.540353e-01 9.712240e-01 1.088200e+00 1.294068e+00 1.356704e+00 1.474506e+00 1.451385e+00 1.696005e+00 2.018416e+00 1.885319e+00 4.171469e-04 9.690036e-02 1.222054e-01 1.176963e-01 1.796098e-01 1.955563e-01 1.744219e-01 2.434243e-01 2.299470e-01 2.687638e-01 2.834169e-01 3.544302e-01 2.956403e-01 8.517099e-05
<GCONST> 6.948575e+01
<STATE> 4
<NUMMIXES> 2
<MIXTURE> 1 4.592069e-01
<MEAN> 39
 -1.931365e+00 1.065179e+01 -5.456800e+00 -3.124654e+00 -7.597786e+00 -7.560083e+00 -4.190117e+00 -3.363072e+00 -4.163589e+00 -1.899679e+00 -3.929931e+00 2.826065e+00 8.651318e-01 -2.837917e-01 -1.280765e-01 -1.781107e-01 2.358882e-01 -2.579686e-01 -2.935880e-01 -6.345489e-01 -7.284921e-01 -4.924591e-01 -4.278209e-01 -2.408961e-01 1.230369e-01 1.851075e-02 2.823595e-01 1.218948e-01 3.101498e-01 2.223309e-01 3.677907e-01 3.465200e-01 4.207095e-01 4.894264e-01 4.810808e-01 3.766699e-01 3.069284e-01 9.440888e-02 -6.397420e-03
<VARIANCE> 39
 1.454219e+01 3.296400e+01 1.939819e+01 1.857736e+01 2.005200e+01 2.467703e+01 2.738380e+01 2.992348e+01 3.674409e+01 3.679053e+01 5.980758e+01 6.074579e+01 8.086584e-03 4.635936e-01 6.745217e-01 8.061553e-01 1.138027e+00 1.229352e+00 1.322233e+00 1.649867e+00 1.398869e+00 1.511256e+00 1.997521e+00 2.436705e+00 2.554444e+00 2.050690e-04 7.852311e-02 1.160678e-01 1.265905e-01 1.784393e-01 1.890364e-01 2.337301e-01 2.276933e-01 2.743143e-01 2.707746e-01 3.396741e-01 4.738661e-01 4.431514e-01 7.152138e-05
<GCONST> 7.388043e+01
<MIXTURE> 2 5.407919e-01
<MEAN> 39
 -1.385142e+00 1.549852e+01 9.619417e-01 -2.059832e+00 -6.033037e+00 -4.227924e+00 -1.057087e+01 7.478232e-01 -1.265983e+00 -3.784655e+00 4.631921e+00 -3.702890e+00 8.290514e-01 -2.561243e-01 4.938169e-01 -1.079183e-01 2.506445e-01 -1.370567e-01 9.570374e-02 -2.189490e-01 -6.752835e-02 -2.472038e-01 -2.941595e-01 8.539548e-02 -2.508422e-01 1.392802e-02 9.821167e-02 -2.136821e-01 1.956813e-02 -1.247355e-01 9.471324e-02 -2.483866e-03 1.519949e-01 -4.520956e-02 7.275030e-02 9.851634e-02 -1.128780e-01 1.282101e-01 -2.473375e-03
<VARIANCE> 39
 8.137635e+00 2.746707e+01 1.356022e+01 1.650576e+01 1.914587e+01 2.092392e+01 2.175733e+01 2.625902e+01 2.782166e+01 3.633207e+01 1.778473e+01 1.446514e+01 5.335458e-03 3.702594e-01 5.090836e-01 4.730545e-01 7.937503e-01 6.105818e-01 7.359282e-01 9.867854e-01 1.075432e+00 1.208822e+00 9.764836e-01 9.776577e-01 1.009696e+00 1.894157e-04 6.543489e-02 8.184645e-02 9.249934e-02 1.447523e-01 1.203885e-01 1.479997e-01 1.590418e-01 1.936200e-01 1.873239e-01 1.866375e-01 1.383990e-01 1.489575e-01 2.180713e-05
<GCONST> 5.524687e+01
<STATE> 5
<NUMMIXES> 2
<MIXTURE> 1 4.060762e-01
<MEAN> 39
 -1.209030e+00 1.247642e+01 -3.100740e+00 -1.571516e+00 -6.192191e+00 -5.877689e+00 -4.536015e+00 -1.338781e+00 -2.795187e+00 -1.363441e+00 -1.580732e+00 1.962386e+00 8.791852e-01 1.591229e-01 2.731135e-01 1.937969e-01 4.295559e-01 2.461122e-01 2.007314e-01 1.995314e-01 1.297417e-01 3.289469e-01 2.335352e-01 1.854247e-01 2.728437e-01 9.467372e-03 6.323715e-02 -4.691871e-02 1.474726e-02 -6.748646e-02 7.347975e-02 4.429156e-02 1.058148e-01 1.083417e-01 1.114495e-01 8.884791e-02 5.656978e-02 -5.951533e-02 -3.493582e-03
<VARIANCE> 39
 1.233516e+01 3.663037e+01 2.175764e+01 1.731049e+01 2.225405e+01 2.844168e+01 3.254087e+01 3.006784e+01 3.864091e+01 3.991207e+01 5.504045e+01 5.857417e+01 6.972163e-03 2.774146e-01 5.570604e-01 7.256907e-01 7.881675e-01 9.842067e-01 1.119494e+00 1.230312e+00 1.166835e+00 1.128461e+00 1.207106e+00 1.265772e+00 1.434333e+00 7.327327e-05 4.281166e-02 7.479621e-02 1.197490e-01 1.291340e-01 1.737216e-01 1.849856e-01 1.950218e-01 2.374577e-01 2.267621e-01 2.116616e-01 2.521727e-01 2.280370e-01 1.840709e-05
<GCONST> 6.370967e+01
<MIXTURE> 2 5.939211e-01
<MEAN> 39
 -2.017556e+00 1.267315e+01 -1.288849e+00 -1.861695e+00 -3.912021e+00 -4.792264e+00 -5.987247e+00 -1.182324e-01 -1.933899e+00 -2.330996e+00 1.700821e+00 6.311047e-02 8.900753e-01 1.136695e-02 8.285746e-03 -3.129600e-02 -5.105238e-02 4.594687e-02 -3.635471e-02 3.886476e-02 -5.570837e-02 3.348329e-02 -1.725802e-02 -1.040336e-02 -2.875967e-02 6.381737e-04 6.493859e-03 -2.463614e-02 5.342694e-03 -3.531186e-02 -7.862386e-03 -2.054574e-02 9.812002e-03 1.618861e-03 1.894960e-02 1.664141e-02 -4.748157e-03 -5.582247e-03 -1.086977e-03
<VARIANCE> 39
 7.458769e+00 4.633853e+01 1.147441e+01 9.814357e+00 1.232127e+01 1.840640e+01 2.717373e+01 1.526496e+01 2.528572e+01 2.875742e+01 3.553044e+01 3.033154e+01 7.272862e-03 5.992797e-02 1.007398e-01 1.309423e-01 1.668688e-01 1.902740e-01 2.201944e-01 2.213374e-01 2.358266e-01 2.527511e-01 2.339493e-01 1.917210e-01 2.233625e-01 3.754082e-05 8.679685e-03 1.585612e-02 2.022547e-02 2.456200e-02 3.109168e-02 3.432733e-02 3.423795e-02 3.748501e-02 4.393502e-02 3.814006e-02 3.169746e-02 4.023222e-02 3.730629e-06
<GCONST> 1.556483e+01
<STATE> 6
<NUMMIXES> 2
<MIXTURE> 1 3.327413e-01
<MEAN> 39
 -1.272292e+00 9.032064e+00 -5.431844e+00 -2.528127e+00 -7.264063e+00 -7.356267e+00 -4.969184e+00 -4.131117e+00 -4.064476e+00 -3.708563e+00 -5.113798e+00 6.513277e-02 9.037315e-01 3.586376e-02 4.045904e-03 -7.811392e-02 -2.901125e-02 1.000029e-02 -2.316083e-02 2.150384e-02 5.029631e-03 6.595071e-02 -6.048470e-02 1.187243e-02 -7.511166e-02 -4.045503e-04 1.045363e-01 1.596379e-01 2.532355e-01 1.967820e-01 3.110589e-01 2.709800e-01 3.171428e-01 3.061078e-01 2.770508e-01 2.461353e-01 1.995165e-01 1.542430e-01 -1.320063e-03
<VARIANCE> 39
 1.244527e+01 4.867968e+01 1.472459e+01 1.329992e+01 1.953204e+01 2.576114e+01 2.040436e+01 2.137942e+01 1.662520e+01 2.285918e+01 3.056310e+01 3.417434e+01 6.470626e-03 1.563998e-01 3.048046e-01 4.409064e-01 5.728077e-01 7.294978e-01 7.651343e-01 8.008048e-01 7.446204e-01 7.213820e-01 6.889675e-01 7.245223e-01 6.491987e-01 3.754082e-05 1.970045e-02 4.880356e-02 5.744913e-02 7.214860e-02 9.110340e-02 8.838127e-02 9.935659e-02 1.082184e-01 1.043943e-01 9.606211e-02 1.102561e-01 1.083242e-01 5.016796e-06
<GCONST> 4.332802e+01
<MIXTURE> 2 6.672560e-01
<MEAN> 39
 -1.727590e-01 1.035913e+01 -2.232372e+00 5.285920e-02 -3.686996e+00 -3.867398e+00 -2.358881e+00 -6.927445e-01 -1.444646e+00 -7.144445e-01 -1.717325e+00 1.629599e+00 9.082663e-01 8.002723e-02 -2.029361e-03 -3.130783e-02 5.196626e-02 4.690363e-02 -2.624093e-02 7.122552e-02 -5.046888e-02 1.232679e-01 8.806625e-02 3.815216e-02 -5.183271e-02 -3.643634e-04 -6.136518e-02 -1.195681e-01 -1.191103e-01 -1.721699e-01 -1.402578e-01 -1.644664e-01 -1.312254e-01 -1.259582e-01 -1.102552e-01 -1.212776e-01 -8.750147e-02 -1.293379e-01 -1.073956e-03
<VARIANCE> 39
 1.110259e+01 4.817252e+01 1.307253e+01 1.255179e+01 1.899982e+01 2.355747e+01 2.353115e+01 2.227220e+01 1.941297e+01 2.468335e+01 3.639965e+01 3.398612e+01 5.574249e-03 1.589081e-01 3.468338e-01 4.773244e-01 5.950735e-01 7.522193e-01 7.830490e-01 8.455180e-01 8.550708e-01 7.873749e-01 7.816909e-01 7.687280e-01 6.898870e-01 3.754082e-05 2.268403e-02 4.642994e-02 6.948324e-02 8.584342e-02 1.082066e-01 1.114791e-01 1.250093e-01 1.330278e-01 1.156690e-01 1.254025e-01 1.262135e-01 1.185168e-01 3.730629e-06
<GCONST> 4.578111e+01
<STATE> 7
<NUMMIXES> 2
<MIXTURE> 1 4.208456e-01
<MEAN> 39
 6.050350e-01 1.149461e+01 -5.161701e+00 -4.370065e-01 -5.868270e+00 -5.397305e+00 -1.291304e+00 -7.524173e-01 2.302983e+00 2.727296e+00 1.408279e+00 4.590202e+00 8.895981e-01 2.728241e-01 2.885876e-02 -1.860686e-03 1.523869e-01 4.129349e-01 2.159325e-01 5.284086e-02 1.528495e-01 3.595368e-01 3.123862e-01 7.436197e-02 -1.826559e-01 -9.577732e-04 -4.700179e-02 -7.800058e-02 -1.782502e-02 -1.795663e-01 3.061449e-02 -1.185125e-01 -9.476081e-02 -8.672591e-02 -7.050078e-02 -9.958903e-02 -2.478714e-02 -4.924669e-02 -1.523360e-03
<VARIANCE> 39
 2.414394e+01 3.637039e+01 3.078228e+01 1.851565e+01 2.681323e+01 2.632504e+01 2.664273e+01 3.765269e+01 6.156611e+01 7.952166e+01 8.930495e+01 8.561623e+01 6.738472e-03 4.898649e-01 7.191729e-01 1.168088e+00 1.029852e+00 1.228696e+00 1.265093e+00 1.200261e+00 1.436909e+00 1.389719e+00 1.677115e+00 1.680683e+00 1.509263e+00 6.623004e-05 8.069004e-02 1.393099e-01 2.162324e-01 2.087085e-01 2.422449e-01 2.748597e-01 2.555055e-01 2.813405e-01 2.533636e-01 3.542084e-01 2.640859e-01 2.698969e-01 9.303587e-06
<GCONST> 7.342578e+01
<MIXTURE> 2 5.791537e-01
<MEAN> 39
 -1.126874e+00 1.588828e+01 -3.622105e-01 -1.350059e+00 -5.891112e+00 -4.715270e+00 -9.623977e+00 -1.290651e-01 -6.852412e-01 -4.124308e+00 2.722209e+00 -3.783379e+00 8.656701e-01 4.055722e-03 -7.085091e-02 8.216435e-02 -1.506520e-01 1.529775e-01 -2.051627e-01 1.557279e-01 3.648454e-02 2.287500e-01 9.543473e-02 5.055999e-02 -5.337485e-02 -2.313165e-03 -4.675627e-04 -9.478304e-02 3.645144e-02 -1.239947e-01 8.764712e-02 -8.770122e-02 6.889834e-02 -3.000649e-02 3.231966e-02 3.506599e-02 -2.377626e-02 5.062579e-02 -1.572244e-03
<VARIANCE> 39
 1.216238e+01 2.911994e+01 1.722070e+01 2.008427e+01 2.105238e+01 2.600643e+01 3.503545e+01 2.080123e+01 2.792024e+01 3.345504e+01 3.612408e+01 2.626518e+01 4.516712e-03 1.515402e-01 2.199532e-01 3.282011e-01 5.106575e-01 4.386391e-01 5.718668e-01 6.156935e-01 6.741241e-01 7.141720e-01 6.975502e-01 6.038864e-01 6.509295e-01 4.391444e-05 3.153585e-02 4.789307e-02 6.319154e-02 8.607093e-02 8.499718e-02 1.162220e-01 1.252293e-01 1.068170e-01 1.604703e-01 1.174723e-01 1.273468e-01 1.093770e-01 5.389634e-06
<GCONST> 4.445379e+01
<STATE> 8
<NUMMIXES> 2
<MIXTURE> 1 5.088949e-01
<MEAN> 39
 -1.474751e+00 1.436656e+01 -2.682158e-01 -2.295758e+00 -4.426337e+00 -4.925874e+00 -8.100006e+00 -4.769859e-01 -6.052703e-01 -3.449419e+00 3.081251e+00 -3.053296e+00 8.638258e-01 1.023433e-01 -2.765433e-01 1.953953e-01 -3.387068e-01 4.110686e-01 -1.586266e-01 1.803440e-01 3.719190e-02 3.824644e-01 3.054090e-01 -7.319644e-02 1.185769e-01 -6.312999e-03 1.457245e-01 -2.170331e-01 1.323025e-01 -1.126834e-01 1.594656e-01 7.012374e-02 1.778302e-01 6.952991e-02 -1.668191e-03 1.023000e-01 -1.503119e-01 1.020091e-01 -3.777680e-03
<VARIANCE> 39
 1.046729e+01 3.626073e+01 1.453007e+01 2.003263e+01 1.596980e+01 2.290661e+01 3.238862e+01 1.810432e+01 2.242329e+01 2.563573e+01 3.001206e+01 2.256660e+01 6.264784e-03 3.361756e-01 4.689746e-01 5.274357e-01 1.186971e+00 7.811133e-01 7.933987e-01 1.109489e+00 9.088260e-01 1.283255e+00 9.938244e-01 1.231045e+00 7.962250e-01 1.165373e-04 4.999493e-02 7.607073e-02 1.253949e-01 1.615331e-01 1.373705e-01 1.501325e-01 2.146930e-01 1.859439e-01 1.800971e-01 2.089495e-01 1.954601e-01 1.784473e-01 1.740296e-05
<GCONST> 5.757719e+01
<MIXTURE> 2 4.911055e-01
<MEAN> 39
 4.213523e-01 1.283752e+01 -5.606761e+00 -2.794158e-01 -6.239674e+00 -6.953277e+00 -2.611985e+00 -2.323175e+00 -8.125014e-01 2.546178e-01 -2.434521e+00 3.412070e+00 8.858674e-01 -3.789218e-01 -4.469098e-01 -1.147066e-01 -8.917232e-01 3.097673e-02 -8.243245e-01 1.548018e-02 -4.471577e-01 -8.351600e-02 -4.554853e-01 1.746267e-01 -4.295818e-01 -3.773291e-03 -1.433586e-02 -1.962936e-01 2.281958e-01 -3.294081e-01 2.214283e-01 -1.345590e-01 5.422392e-03 4.097840e-05 -6.820831e-02 -1.131215e-01 5.428874e-02 -1.941914e-01 -3.475605e-03
<VARIANCE> 39
 1.990626e+01 3.389597e+01 2.059726e+01 2.261197e+01 2.173821e+01 2.794903e+01 2.607367e+01 3.391566e+01 4.326143e+01 4.318842e+01 6.505544e+01 6.756818e+01 5.870683e-03 4.664789e-01 5.678867e-01 9.178119e-01 1.023716e+00 1.395009e+00 1.400623e+00 1.575871e+00 1.467876e+00 1.561172e+00 1.504490e+00 1.486587e+00 1.737015e+00 7.262224e-05 7.158884e-02 1.071470e-01 2.127652e-01 1.992732e-01 2.671252e-01 2.796244e-01 3.776090e-01 2.922770e-01 2.850332e-01 2.662431e-01 3.502494e-01 3.376645e-01 1.004388e-05
<GCONST> 7.165173e+01
<STATE> 9
<NUMMIXES> 2
<MIXTURE> 1 8.216683e-01
<MEAN> 39
 -5.546538e-01 1.225784e+01 -2.366052e+00 -2.788769e+00 -4.710828e+00 -7.062782e+00 -6.063120e+00 -1.749086e+00 -1.354168e+00 -2.654191e+00 -1.006950e+00 -2.038002e+00 8.632559e-01 1.704773e-01 -5.361452e-01 4.227496e-01 -7.264814e-01 7.062326e-01 -2.507330e-01 4.256128e-01 6.698517e-02 2.294153e-01 1.302630e-01 1.193102e-01 -2.275676e-02 -1.089755e-02 2.076958e-01 -1.484537e-01 3.255410e-01 6.850178e-02 2.572544e-01 3.428344e-01 1.972009e-01 1.837613e-01 5.085758e-04 1.334710e-01 3.599600e-02 7.981095e-02 -5.751197e-03
<VARIANCE> 39
 1.635932e+01 4.044317e+01 2.376467e+01 2.425503e+01 2.141663e+01 3.040777e+01 3.283784e+01 2.774946e+01 3.297086e+01 2.783619e+01 4.365730e+01 2.806017e+01 6.515417e-03 5.481258e-01 6.055174e-01 9.824772e-01 1.685077e+00 1.230909e+00 1.578875e+00 2.028783e+00 1.452691e+00 1.673576e+00 1.816782e+00 1.852070e+00 1.691827e+00 1.436274e-04 8.231968e-02 1.364943e-01 2.123326e-01 2.344774e-01 2.498420e-01 2.136312e-01 3.118264e-01 3.377599e-01 3.250625e-01 2.726136e-01 3.325827e-01 2.537564e-01 2.639926e-05
<GCONST> 7.316625e+01
<MIXTURE> 2 1.783319e-01
<MEAN> 39
 -2.806699e+00 1.139817e+01 -5.461689e+00 -2.636592e+00 -5.897853e+00 -6.681995e+00 1.033506e+00 -1.638672e+00 4.151579e+00 7.014967e+00 9.599053e+00 1.260026e+01 9.172574e-01 -3.127106e-01 -6.485171e-01 3.745809e-01 -1.156886e+00 7.886858e-01 -7.330968e-01 7.316253e-02 -1.048610e-01 -4.025624e-01 5.835707e-02 -5.640445e-01 -7.356262e-01 -9.821385e-03 3.003258e-01 -2.499926e-01 3.535489e-01 -8.313742e-02 1.361822e-01 1.222921e-01 -2.833394e-01 1.145059e-01 -3.520513e-01 -5.127785e-01 -6.432095e-01 -7.483740e-01 -8.104017e-03
<VARIANCE> 39
 1.848416e+01 1.734130e+01 2.427752e+01 1.611099e+01 4.136022e+01 2.147428e+01 2.257220e+01 2.648000e+01 5.464134e+01 6.519058e+01 7.350982e+01 7.990626e+01 3.992992e-03 8.687828e-01 8.443145e-01 1.381444e+00 1.715382e+00 2.549608e+00 1.680423e+00 1.928593e+00 1.767912e+00 1.386654e+00 2.233500e+00 2.719457e+00 2.704000e+00 1.576485e-04 1.355549e-01 1.689627e-01 2.717703e-01 2.570997e-01 3.609458e-01 2.942549e-01 4.082665e-01 3.081678e-01 3.614005e-01 5.191103e-01 3.378185e-01 5.093160e-01 3.366156e-05
<GCONST> 8.105132e+01
<STATE> 10
<MEAN> 39
 -8.915509e-01 1.172270e+01 -2.110782e+00 -3.977575e+00 -3.774165e+00 -7.316038e+00 -4.508878e+00 -1.586771e+00 -4.936249e-01 -1.365571e+00 5.071757e-01 -1.500359e-01 8.563592e-01 5.020390e-01 -8.215527e-01 9.739478e-01 -7.213472e-01 1.006212e+00 2.094388e-01 4.959592e-01 3.605490e-01 5.373092e-02 1.765623e-01 -1.113635e-01 -3.032488e-01 -1.879944e-02 2.057302e-01 -1.577211e-01 3.576775e-01 3.951364e-01 1.139057e-01 5.560070e-01 8.368596e-02 1.314048e-01 -6.924362e-02 -8.534216e-04 -7.783118e-02 -2.338630e-02 -9.104569e-03
<VARIANCE> 39
 1.929374e+01 3.695266e+01 2.558589e+01 2.585845e+01 2.157606e+01 2.805287e+01 3.783216e+01 2.970776e+01 3.534288e+01 4.110301e+01 4.514640e+01 5.190474e+01 6.733831e-03 7.343733e-01 1.051373e+00 1.631134e+00 2.590907e+00 1.834914e+00 1.777350e+00 2.500721e+00 2.208255e+00 2.287620e+00 2.555428e+00 3.258115e+00 3.054311e+00 2.395248e-04 1.359847e-01 1.867555e-01 2.486295e-01 2.822689e-01 3.160591e-01 3.188455e-01 4.048252e-01 3.624420e-01 3.656094e-01 4.017050e-01 3.375319e-01 3.812963e-01 5.808490e-05
<GCONST> 8.374553e+01
<STATE> 11
<MEAN> 39
 -5.429160e-02 1.088356e+01 -8.141313e-01 -4.778117e+00 -2.308804e+00 -6.958834e+00 -3.815103e+00 -8.410392e-01 -3.458890e-01 -8.317924e-01 3.323449e-01 -5.841904e-01 8.337889e-01 7.935383e-01 -9.286606e-01 1.377630e+00 -6.145298e-02 1.017479e+00 1.047097e+00 5.308067e-01 4.975594e-01 1.021201e-02 1.229592e-01 -2.531796e-01 -3.122740e-01 -2.969994e-02 -1.147519e-02 -1.440815e-01 1.838297e-01 6.761411e-01 -2.149852e-02 5.876906e-01 7.616919e-02 2.045870e-02 -4.693918e-02 -4.000688e-02 1.834728e-03 7.173155e-02 -1.129956e-02
<VARIANCE> 39
 2.084310e+01 3.542285e+01 2.481501e+01 3.626016e+01 2.188104e+01 3.083532e+01 3.656240e+01 3.115779e+01 3.491886e+01 3.759391e+01 3.655415e+01 4.106334e+01 7.215724e-03 9.487320e-01 1.582109e+00 2.192652e+00 2.899611e+00 1.998875e+00 1.909049e+00 3.116062e+00 2.853255e+00 2.745116e+00 3.064601e+00 3.747200e+00 3.586962e+00 4.524968e-04 1.850305e-01 2.331167e-01 2.327651e-01 3.852713e-01 4.374096e-01 4.230400e-01 4.202528e-01 4.103778e-01 3.975285e-01 4.119274e-01 3.658134e-01 3.897178e-01 1.121324e-04
<GCONST> 8.915285e+01
<STATE> 12
<MEAN> 39
 2.357231e+00 9.960678e+00 1.170004e+00 -3.366945e+00 -7.443523e-01 -4.609359e+00 -3.393383e+00 -2.593210e-01 -4.531170e-01 -7.176499e-01 -1.797069e-01 -1.032226e+00 7.715089e-01 4.913881e-01 -8.289974e-01 1.426109e+00 1.065490e+00 7.552584e-01 1.404183e+00 3.862460e-01 6.657494e-03 -1.043830e-01 -1.412189e-01 -1.931211e-01 -1.722119e-01 -4.022661e-02 -3.814525e-01 -1.747174e-01 -1.124023e-01 5.206316e-01 -6.486975e-02 2.269286e-01 5.910203e-02 -2.450650e-02 4.258406e-02 -1.130377e-02 8.418848e-02 1.418083e-01 -1.148909e-02
<VARIANCE> 39
 2.240506e+01 3.769455e+01 2.858195e+01 5.130325e+01 2.690587e+01 2.962901e+01 3.631157e+01 3.367163e+01 3.206758e+01 3.423213e+01 3.433710e+01 3.824220e+01 1.187677e-02 1.166047e+00 1.961269e+00 2.123001e+00 2.755026e+00 2.603238e+00 2.837492e+00 3.313812e+00 2.919123e+00 2.605358e+00 3.060583e+00 3.332944e+00 3.176458e+00 8.349571e-04 2.551050e-01 2.526488e-01 3.741758e-01 5.692566e-01 4.832027e-01 5.047207e-01 4.637386e-01 5.510800e-01 4.607292e-01 5.008836e-01 5.133272e-01 5.041474e-01 1.794969e-04
<GCONST> 9.494755e+01
<STATE> 13
<MEAN> 39
 1.891376e+00 8.780378e+00 3.253755e+00 -2.115523e+00 -6.724630e-01 -2.570769e+00 -3.044303e+00 -4.361973e-01 -6.483213e-01 -1.392017e+00 -5.905088e-01 -1.189379e+00 7.332485e-01 -2.392784e-01 -1.328403e+00 1.111856e+00 1.740104e+00 7.673054e-01 1.856654e+00 7.262258e-01 2.432663e-01 6.861629e-03 1.391890e-02 5.379678e-02 1.186709e-01 -6.014128e-02 -5.509297e-01 -3.049009e-01 -5.503198e-01 2.372367e-01 -3.720903e-02 -5.461198e-03 2.314164e-01 2.090866e-01 2.406708e-01 2.295537e-01 2.484220e-01 2.318078e-01 -1.179854e-02
<VARIANCE> 39
 2.069957e+01 4.209219e+01 2.806101e+01 5.786350e+01 2.779333e+01 2.941752e+01 3.698650e+01 4.044979e+01 3.727821e+01 3.310582e+01 3.411067e+01 3.521746e+01 1.358928e-02 1.567193e+00 2.560012e+00 1.828380e+00 2.860176e+00 3.616464e+00 3.136881e+00 3.149237e+00 2.697979e+00 2.717078e+00 3.092963e+00 3.078176e+00 2.879823e+00 1.871053e-03 3.681544e-01 2.913920e-01 4.505293e-01 7.040220e-01 4.655643e-01 6.589372e-01 5.844641e-01 7.843840e-01 6.358011e-01 6.016927e-01 5.719256e-01 5.798143e-01 3.165975e-04
<GCONST> 9.994421e+01
<STATE> 14
<MEAN> 39
 9.929144e-01 7.377345e+00 4.210201e+00 4.453526e-01 1.699260e-01 -6.279181e-01 -2.247431e+00 -6.768364e-01 -8.717166e-01 -1.452356e+00 -1.708657e-01 -9.033569e-01 6.669722e-01 -1.005978e+00 -1.786182e+00 1.940148e-01 1.649033e+00 7.716103e-01 1.528379e+00 1.069196e+00 6.638492e-01 4.492375e-01 4.294448e-01 4.342275e-01 4.594012e-01 -7.421245e-02 -4.373102e-01 -2.175765e-01 -6.900641e-01 -2.272695e-01 -4.632204e-02 -2.835407e-01 1.866435e-01 2.763341e-01 3.137453e-01 3.058840e-01 1.857029e-01 1.396035e-01 -4.863034e-03
<VARIANCE> 39
 1.874899e+01 5.180999e+01 2.745544e+01 6.192921e+01 4.015462e+01 3.530436e+01 4.358018e+01 3.968235e+01 4.130872e+01 3.898997e+01 3.935826e+01 3.433761e+01 2.125347e-02 2.490034e+00 2.387900e+00 2.035484e+00 3.213212e+00 3.367695e+00 3.963594e+00 2.716742e+00 3.532514e+00 2.933438e+00 2.962030e+00 3.252966e+00 2.875213e+00 3.607827e-03 2.763222e-01 4.250481e-01 4.589320e-01 6.905683e-01 6.877911e-01 7.778854e-01 7.527801e-01 7.866103e-01 7.261930e-01 6.923785e-01 6.070297e-01 6.191890e-01 3.663383e-04
<GCONST> 1.047171e+02
<STATE> 15
<MEAN> 39
 -7.463640e-01 5.148651e+00 3.983839e+00 2.073327e+00 1.178169e+00 8.978460e-01 -6.156670e-01 5.455263e-01 -4.326680e-02 -6.254237e-01 5.486525e-01 -4.585955e-02 5.621824e-01 -1.385057e+00 -2.072747e+00 -6.181103e-01 9.554334e-01 7.210254e-01 1.023855e+00 1.225355e+00 1.115635e+00 9.065762e-01 8.745465e-01 5.659485e-01 5.077726e-01 -7.533304e-02 -1.102222e-01 3.933690e-02 -5.024670e-01 -4.681277e-01 -6.953146e-02 -3.379543e-01 9.030457e-03 1.165927e-01 2.101437e-01 2.156790e-01 1.727977e-02 -4.083741e-02 8.240675e-03
<VARIANCE> 39
 2.147632e+01 5.206195e+01 2.631004e+01 5.724829e+01 4.743490e+01 3.917904e+01 4.568080e+01 3.604404e+01 4.016015e+01 3.761413e+01 4.071106e+01 3.465460e+01 4.484178e-02 2.975816e+00 2.502116e+00 2.788738e+00 3.558456e+00 3.111343e+00 5.256319e+00 3.366746e+00 4.491728e+00 3.902831e+00 3.423645e+00 3.384157e+00 3.585744e+00 5.192387e-03 1.705222e-01 4.670828e-01 3.854102e-01 6.053234e-01 7.987227e-01 6.461995e-01 7.560585e-01 6.184575e-01 6.164544e-01 6.167566e-01 6.132788e-01 5.174294e-01 4.417994e-04
<GCONST> 1.068099e+02
<TRANSP> 16
 0.000000e+00 1.000000e+00 0.000000e+00 0.000000e+00 0.000000e+00 0.000000e+00 0.000000e+00 0.000000e+00 0.000000e+00 0.000000e+00 0.000000e+00 0.000000e+00 0.000000e+00 0.000000e+00 0.000000e+00 0.000000e+00
 0.000000e+00 5.382543e-01 4.617456e-01 0.000000e+00 0.000000e+00 0.000000e+00 0.000000e+00 0.000000e+00 0.000000e+00 0.000000e+00 0.000000e+00 0.000000e+00 0.000000e+00 0.000000e+00 0.000000e+00 0.000000e+00
 0.000000e+00 0.000000e+00 4.549265e-01 5.450735e-01 0.000000e+00 0.000000e+00 0.000000e+00 0.000000e+00 0.000000e+00 0.000000e+00 0.000000e+00 0.000000e+00 0.000000e+00 0.000000e+00 0.000000e+00 0.000000e+00
 0.000000e+00 0.000000e+00 0.000000e+00 5.347832e-01 4.652167e-01 0.000000e+00 0.000000e+00 0.000000e+00 0.000000e+00 0.000000e+00 0.000000e+00 0.000000e+00 0.000000e+00 0.000000e+00 0.000000e+00 0.000000e+00
 0.000000e+00 0.000000e+00 0.000000e+00 0.000000e+00 7.188255e-01 2.811745e-01 0.000000e+00 0.000000e+00 0.000000e+00 0.000000e+00 0.000000e+00 0.000000e+00 0.000000e+00 0.000000e+00 0.000000e+00 0.000000e+00
 0.000000e+00 0.000000e+00 0.000000e+00 0.000000e+00 0.000000e+00 7.838839e-01 2.161161e-01 0.000000e+00 0.000000e+00 0.000000e+00 0.000000e+00 0.000000e+00 0.000000e+00 0.000000e+00 0.000000e+00 0.000000e+00
 0.000000e+00 0.000000e+00 0.000000e+00 0.000000e+00 0.000000e+00 0.000000e+00 5.318353e-01 4.681646e-01 0.000000e+00 0.000000e+00 0.000000e+00 0.000000e+00 0.000000e+00 0.000000e+00 0.000000e+00 0.000000e+00
 0.000000e+00 0.000000e+00 0.000000e+00 0.000000e+00 0.000000e+00 0.000000e+00 0.000000e+00 2.031191e-01 7.968809e-01 0.000000e+00 0.000000e+00 0.000000e+00 0.000000e+00 0.000000e+00 0.000000e+00 0.000000e+00
 0.000000e+00 0.000000e+00 0.000000e+00 0.000000e+00 0.000000e+00 0.000000e+00 0.000000e+00 0.000000e+00 1.860007e-01 8.139993e-01 0.000000e+00 0.000000e+00 0.000000e+00 0.000000e+00 0.000000e+00 0.000000e+00
 0.000000e+00 0.000000e+00 0.000000e+00 0.000000e+00 0.000000e+00 0.000000e+00 0.000000e+00 0.000000e+00 0.000000e+00 3.255889e-06 9.999967e-01 0.000000e+00 0.000000e+00 0.000000e+00 0.000000e+00 0.000000e+00
 0.000000e+00 0.000000e+00 0.000000e+00 0.000000e+00 0.000000e+00 0.000000e+00 0.000000e+00 0.000000e+00 0.000000e+00 0.000000e+00 5.134394e-04 9.994866e-01 0.000000e+00 0.000000e+00 0.000000e+00 0.000000e+00
 0.000000e+00 0.000000e+00 0.000000e+00 0.000000e+00 0.000000e+00 0.000000e+00 0.000000e+00 0.000000e+00 0.000000e+00 0.000000e+00 0.000000e+00 2.926770e-01 7.073230e-01 0.000000e+00 0.000000e+00 0.000000e+00
 0.000000e+00 0.000000e+00 0.000000e+00 0.000000e+00 0.000000e+00 0.000000e+00 0.000000e+00 0.000000e+00 0.000000e+00 0.000000e+00 0.000000e+00 0.000000e+00 2.897668e-03 9.971023e-01 0.000000e+00 0.000000e+00
 0.000000e+00 0.000000e+00 0.000000e+00 0.000000e+00 0.000000e+00 0.000000e+00 0.000000e+00 0.000000e+00 0.000000e+00 0.000000e+00 0.000000e+00 0.000000e+00 0.000000e+00 2.625461e-03 9.973745e-01 0.000000e+00
 0.000000e+00 0.000000e+00 0.000000e+00 0.000000e+00 0.000000e+00 0.000000e+00 0.000000e+00 0.000000e+00 0.000000e+00 0.000000e+00 0.000000e+00 0.000000e+00 0.000000e+00 0.000000e+00 7.512721e-02 9.248728e-01
 0.000000e+00 0.000000e+00 0.000000e+00 0.000000e+00 0.000000e+00 0.000000e+00 0.000000e+00 0.000000e+00 0.000000e+00 0.000000e+00 0.000000e+00 0.000000e+00 0.000000e+00 0.000000e+00 0.000000e+00 0.000000e+00
<ENDHMM>
~h "#u"
<BEGINHMM>
<NUMSTATES> 16
<STATE> 2
<NUMMIXES> 2
<MIXTURE> 1 3.974773e-01
<MEAN> 39
 5.545312e+00 -5.923430e+00 -4.614791e+00 2.854105e+00 -4.629617e+00 -1.037440e+01 -1.187699e+00 3.866185e+00 -5.018639e-01 -1.838271e+00 -2.706487e+00 -8.572414e-01 8.810994e-01 1.747621e+00 3.266720e-01 -2.026444e+00 6.602285e-01 2.662658e+00 -3.328539e-01 -2.104990e+00 2.719937e-01 1.391112e+00 5.834258e-01 -3.208572e-01 -5.430605e-01 -8.385165e-03 -1.189822e-01 4.750785e-01 2.207735e-01 -9.012145e-01 2.968148e-01 1.026123e+00 -2.113073e-01 -8.295596e-01 8.290227e-02 4.965408e-01 1.406274e-01 -1.619262e-01 2.312106e-05
<VARIANCE> 39
 1.838608e+01 2.556138e+01 3.129171e+01 2.117623e+01 4.414691e+01 3.361449e+01 6.375374e+01 5.367214e+01 4.070573e+01 4.371899e+01 5.283922e+01 5.858422e+01 6.445260e-03 5.183555e-01 1.086690e+00 1.705827e+00 3.970911e+00 2.352669e+00 5.796798e+00 4.083471e+00 5.610329e+00 3.213274e+00 3.805540e+00 2.397824e+00 3.444205e+00 1.485327e-04 9.975814e-02 2.058498e-01 3.132078e-01 4.607000e-01 9.065976e-01 6.140054e-01 1.341593e+00 8.240632e-01 9.692802e-01 5.388030e-01 5.571617e-01 5.488703e-01 1.805453e-05
<GCONST> 9.406429e+01
<MIXTURE> 2 6.025220e-01
<MEAN> 39
 1.049943e+01 1.417074e+00 -7.463624e+00 -4.419075e+00 1.933580e+00 -9.710350e-02 -1.521504e+00 -7.009184e-01 -4.419582e-01 3.418349e+00 9.921094e-01 -2.469771e-01 7.165122e-01 1.646032e+00 3.884119e-01 -1.556178e+00 -7.798845e-01 -3.402344e-01 -2.570664e-01 -4.221830e-01 -6.300771e-01 -9.692014e-01 1.654070e-01 1.854539e-01 -2.888303e-01 7.278370e-02 -6.871095e-01 -2.511276e-01 4.384460e-01 4.510602e-01 3.413859e-02 3.640459e-02 2.230003e-01 2.448580e-01 1.030840e-01 -2.277604e-01 -8.828057e-02 6.989135e-02 -2.136804e-02
<VARIANCE> 39
 2.472677e+01 3.810773e+01 3.587251e+01 2.634145e+01 2.902361e+01 3.014040e+01 3.554909e+01 2.864112e+01 3.535211e+01 3.319817e+01 3.204898e+01 2.970377e+01 2.151226e-02 2.185630e+00 1.641738e+00 3.365779e+00 2.361212e+00 2.095609e+00 2.530009e+00 2.694561e+00 2.846797e+00 2.597921e+00 3.589232e+00 4.117272e+00 3.334184e+00 4.458862e-03 3.931998e-01 2.144352e-01 4.852193e-01 4.198109e-01 3.873208e-01 4.344619e-01 4.938083e-01 4.604378e-01 6.065536e-01 5.491484e-01 4.881369e-01 5.318264e-01 6.689654e-04
<GCONST> 9.857348e+01
<STATE> 3
<NUMMIXES> 2
<MIXTURE> 1 5.546111e-01
<MEAN> 39
 1.009927e+01 -2.219962e+00 -9.320393e+00 -1.822101e-01 3.829909e+00 -3.054152e+00 -5.475986e+00 -1.582158e+00 2.172848e+00 4.655165e+00 -1.269872e+00 -3.949335e+00 8.550847e-01 8.804223e-01 9.519783e-01 -6.372960e-02 -8.989682e-01 4.426643e-01 1.783305e+00 4.748566e-01 -1.179977e+00 -7.108171e-01 1.067024e+00 1.412738e+00 2.763552e-01 -8.427436e-03 -2.020470e-01 -8.518209e-02 2.911526e-01 2.541542e-03 -5.278485e-01 -1.545433e-01 5.436388e-01 2.784662e-01 -4.344846e-01 -5.123084e-01 3.087815e-02 3.089564e-01 -5.727150e-05
<VARIANCE> 39
 1.403130e+01 2.289180e+01 2.336815e+01 2.067045e+01 2.254256e+01 3.267142e+01 3.058397e+01 3.385105e+01 3.300611e+01 2.992322e+01 3.678236e+01 3.738806e+01 6.444340e-03 2.993197e-01 5.022498e-01 1.063195e+00 1.460729e+00 1.962855e+00 2.222286e+00 2.448345e+00 2.638446e+00 2.441928e+00 2.402706e+00 2.156982e+00 2.792154e+00 1.408125e-04 4.773659e-02 9.118500e-02 1.723853e-01 2.451952e-01 3.259204e-01 3.880219e-01 4.661076e-01 4.076481e-01 4.313338e-01 3.906914e-01 4.645345e-01 3.533400e-01 1.339141e-05
<GCONST> 7.569376e+01
<MIXTURE> 2 4.453882e-01
<MEAN> 39
 9.567509e+00 -5.198952e-02 -7.675577e+00 -3.651791e+00 -2.521390e-01 -2.516388e+00 -2.425777e+00 -1.379117e+00 -1.597929e+00 9.624536e-01 -1.177853e+00 -1.980274e+00 8.558215e-01 2.025178e-02 -3.072291e-01 -2.200147e-01 5.076745e-01 1.755045e-01 -2.251604e-01 -1.719911e-01 -2.012264e-01 -2.032784e-01 -1.885632e-01 -3.099088e-01 -6.164460e-01 2.576154e-02 -2.699237e-01 7.321981e-02 4.340588e-01 1.725596e-01 1.716980e-01 3.155650e-01 1.921104e-01 4.881211e-02 2.203000e-01 1.389081e-01 2.319486e-01 2.278921e-01 -1.566504e-02
<VARIANCE> 39
 3.604013e+01 3.521368e+01 3.061312e+01 2.729905e+01 2.673732e+01 3.045435e+01 2.657930e+01 2.774007e+01 2.787767e+01 2.744637e+01 3.521978e+01 4.159917e+01 9.703251e-03 5.513595e-01 1.082522e+00 1.624740e+00 1.605255e+00 1.377209e+00 1.785046e+00 2.085111e+00 2.313164e+00 2.142496e+00 2.354994e+00 2.724870e+00 3.523544e+00 4.310440e-04 1.984222e-01 1.863934e-01 3.484553e-01 3.420669e-01 2.781276e-01 3.232405e-01 3.782735e-01 4.972118e-01 3.804518e-01 3.776779e-01 5.135815e-01 5.423924e-01 1.682008e-04
<GCONST> 8.578519e+01
<STATE> 4
<NUMMIXES> 2
<MIXTURE> 1 6.042307e-01
<MEAN> 39
 1.139435e+01 2.743848e-01 -8.775503e+00 -2.931266e+00 2.494884e+00 5.977931e-01 -1.094012e+00 -2.480479e+00 -2.085281e+00 3.635672e+00 2.470449e+00 -1.532506e-01 8.332382e-01 2.424570e-01 3.722456e-01 1.841037e-01 -2.402962e-01 -4.108729e-01 2.792552e-01 5.867209e-01 -3.557789e-02 -6.152586e-01 -5.245810e-01 2.228631e-01 3.284139e-01 1.103114e-03 -1.053492e-01 -1.113846e-01 5.416865e-02 1.387899e-01 -6.364523e-02 -2.146655e-01 -1.367556e-01 1.688329e-01 2.142199e-01 -1.619571e-01 -2.865687e-01 -1.315412e-01 -2.431023e-03
<VARIANCE> 39
 1.648864e+01 3.021503e+01 2.480123e+01 2.104597e+01 2.681240e+01 2.650009e+01 2.736350e+01 3.066639e+01 3.127101e+01 3.049093e+01 3.591452e+01 3.926605e+01 8.306648e-03 3.719832e-01 7.763671e-01 1.157778e+00 1.295962e+00 1.255936e+00 1.523360e+00 1.866668e+00 1.922620e+00 1.864908e+00 1.991849e+00 2.276243e+00 3.021671e+00 3.079909e-04 5.760581e-02 9.905236e-02 1.693312e-01 2.043116e-01 1.976278e-01 2.863038e-01 3.218808e-01 4.192440e-01 3.226855e-01 3.331212e-01 3.605541e-01 3.951043e-01 4.176603e-05
<GCONST> 7.534299e+01
<MIXTURE> 2 3.957691e-01
<MEAN> 39
 2.435273e+00 8.810436e-03 -2.970306e+00 -2.020617e-01 -8.937331e-01 -6.174767e-01 -2.404328e-01 -1.080372e+00 -6.487047e-01 -2.678424e-01 1.850200e-01 -1.530165e-01 9.517120e-01 1.339859e-02 6.958479e-02 1.805858e-02 -9.084352e-03 3.275835e-02 1.434826e-01 2.707509e-02 -2.376490e-04 7.517840e-02 5.270867e-02 9.258340e-02 1.823302e-02 -3.305468e-03 -1.305422e-03 1.012300e-02 -3.341549e-03 -3.064217e-02 7.245876e-03 -4.918074e-03 -1.146396e-03 -2.375822e-03 -8.918383e-03 1.333773e-02 -4.860489e-03 -1.122185e-02 -8.792087e-04
<VARIANCE> 39
 3.070333e+00 8.270792e+00 1.291116e+01 7.816240e+00 8.338960e+00 1.023792e+01 1.227211e+01 1.094238e+01 1.412029e+01 1.358432e+01 1.063165e+01 1.563006e+01 1.675961e-03 1.198174e-01 3.129264e-01 3.939019e-01 4.819756e-01 6.387571e-01 7.159438e-01 9.213285e-01 9.655170e-01 9.412125e-01 8.592752e-01 9.123369e-01 8.448230e-01 4.173089e-05 1.859166e-02 4.904998e-02 6.721473e-02 8.257864e-02 1.089473e-01 1.272647e-01 1.598206e-01 1.547949e-01 1.642232e-01 1.449624e-01 1.544106e-01 1.306818e-01 4.577027e-06
<GCONST> 3.634288e+01
<STATE> 5
<NUMMIXES> 2
<MIXTURE> 1 6.243612e-01
<MEAN> 39
 1.189360e+01 3.125200e+00 -8.483028e+00 -2.571545e+00 1.859577e+00 7.595426e-01 -3.144920e-01 -5.618674e-01 -1.328156e+00 3.319736e+00 3.002651e+00 1.189419e+00 8.122650e-01 1.846239e-01 2.789539e-01 1.795052e-01 -3.861768e-02 2.876541e-03 3.405569e-01 2.409607e-01 -4.933315e-02 5.750202e-02 -1.980742e-03 2.259452e-01 2.660078e-01 -6.299600e-03 -4.163492e-02 -6.584717e-02 -1.384663e-02 3.479698e-03 1.866649e-02 -1.567319e-02 -8.541904e-02 -3.386352e-02 5.294772e-02 4.166326e-02 -6.816355e-02 -1.392757e-01 -8.682475e-04
<VARIANCE> 39
 9.908013e+00 2.637892e+01 2.709550e+01 1.993799e+01 2.321663e+01 1.760069e+01 2.005697e+01 2.311176e+01 2.234026e+01 2.685044e+01 2.243738e+01 2.400517e+01 7.465468e-03 1.424552e-01 3.706920e-01 5.260049e-01 5.149937e-01 5.549474e-01 7.580409e-01 7.720540e-01 9.443386e-01 9.138562e-01 9.879560e-01 1.047473e+00 9.655769e-01 8.462749e-05 2.005857e-02 5.190021e-02 7.451510e-02 8.693882e-02 9.954920e-02 1.298374e-01 1.353462e-01 1.764310e-01 1.622724e-01 1.865580e-01 1.849869e-01 1.723681e-01 7.751803e-06
<GCONST> 4.987708e+01
<MIXTURE> 2 3.756345e-01
<MEAN> 39
 1.173114e+01 -6.409134e-01 -8.299244e+00 -4.188132e+00 -1.872113e+00 -9.838638e-01 -1.596327e+00 -2.910921e+00 -3.538351e+00 -2.329755e+00 -3.012994e+00 -4.980859e+00 8.419142e-01 2.134316e-01 8.177058e-02 8.221054e-02 1.874504e-01 3.199312e-02 7.443149e-02 -1.281117e-01 1.887292e-01 3.390407e-01 1.223444e-01 -1.919677e-01 -4.531697e-01 -3.824667e-03 4.965421e-03 -9.000006e-03 3.818611e-02 2.323210e-01 2.695908e-01 1.107773e-01 -6.263597e-02 8.382730e-02 3.038796e-01 3.855975e-01 2.806194e-01 2.258945e-01 -1.426677e-03
<VARIANCE> 39
 1.430109e+01 3.093503e+01 3.028443e+01 2.229887e+01 2.933520e+01 3.085739e+01 2.964059e+01 3.898585e+01 3.062939e+01 3.198590e+01 3.839143e+01 5.609594e+01 7.979028e-03 4.117394e-01 8.583156e-01 1.148064e+00 1.228679e+00 1.398485e+00 1.661605e+00 1.919384e+00 2.515438e+00 1.932412e+00 2.133392e+00 2.420147e+00 2.780113e+00 1.453293e-04 4.637632e-02 1.327563e-01 2.151489e-01 2.401327e-01 2.481718e-01 3.109345e-01 3.954597e-01 4.992590e-01 4.277716e-01 3.545649e-01 3.897883e-01 4.822555e-01 1.220723e-05
<GCONST> 7.697581e+01
<STATE> 6
<NUMMIXES> 2
<MIXTURE> 1 5.984836e-01
<MEAN> 39
 1.227766e+01 2.353812e+00 -7.148676e+00 -2.678573e+00 3.547612e+00 2.876585e+00 -5.051329e-01 -2.635972e+00 -9.089242e-01 4.949594e+00 4.832038e+00 1.112476e+00 7.936574e-01 -7.578649e-02 -6.206354e-02 1.032998e-01 3.734767e-01 2.355920e-01 2.888775e-02 -3.568600e-01 -1.322070e-02 6.117582e-01 5.485336e-01 -5.834539e-02 -4.016466e-01 -7.681923e-03 -7.589346e-02 -1.013411e-01 2.882998e-02 1.868917e-01 2.411061e-02 -2.468891e-01 -2.075470e-01 1.809553e-01 2.128073e-01 4.708991e-02 -2.153638e-01 -1.724257e-01 -4.436937e-04
<VARIANCE> 39
 1.309513e+01 2.560458e+01 2.718712e+01 1.657874e+01 2.015275e+01 1.733904e+01 2.754106e+01 2.347742e+01 2.345786e+01 2.402264e+01 2.056887e+01 2.348274e+01 8.490080e-03 1.667695e-01 3.651506e-01 4.813162e-01 6.056937e-01 6.351134e-01 8.817165e-01 1.198034e+00 1.042420e+00 1.233325e+00 1.100549e+00 1.225568e+00 1.046640e+00 9.388111e-05 2.582298e-02 5.392359e-02 8.454489e-02 1.036441e-01 1.211352e-01 1.775511e-01 2.354377e-01 2.033976e-01 2.643192e-01 2.093374e-01 2.386220e-01 2.096728e-01 6.808588e-06
<GCONST> 5.458970e+01
<MIXTURE> 2 4.015166e-01
<MEAN> 39
 1.360789e+01 1.197780e-01 -8.310706e+00 -1.539887e+00 1.096396e+00 1.289824e+00 -1.857343e+00 -2.494788e+00 -5.162684e-01 3.216030e+00 1.628171e+00 -2.522613e+00 8.197854e-01 -2.646086e-02 -3.006184e-01 1.758678e-01 8.627478e-01 8.303103e-01 1.426882e-01 -6.520336e-01 -2.198612e-02 9.692132e-01 1.158231e+00 5.977107e-01 -1.378992e-01 -6.849820e-03 -1.788310e-01 -6.731001e-02 5.580636e-02 1.834321e-01 2.682908e-02 -4.579836e-01 -1.131642e-01 2.995989e-01 3.183275e-01 -1.127996e-01 -3.386868e-01 -7.590571e-02 -5.966599e-04
<VARIANCE> 39
 1.016850e+01 4.267918e+01 2.088987e+01 2.206346e+01 2.552972e+01 3.419247e+01 2.646863e+01 3.130344e+01 3.365955e+01 3.544465e+01 4.573180e+01 6.890194e+01 7.631405e-03 4.394577e-01 1.126221e+00 1.352021e+00 1.314230e+00 1.454881e+00 2.005404e+00 2.311119e+00 2.631867e+00 2.303865e+00 2.296941e+00 2.879493e+00 2.980349e+00 1.682321e-04 5.161288e-02 1.956858e-01 1.860789e-01 3.050222e-01 2.727211e-01 4.791162e-01 3.971460e-01 5.558848e-01 4.735483e-01 4.172180e-01 5.207453e-01 5.642932e-01 1.627476e-05
<GCONST> 8.063039e+01
<STATE> 7
<NUMMIXES> 2
<MIXTURE> 1 5.061387e-01
<MEAN> 39
 1.098215e+01 1.997074e+00 -6.560613e+00 -8.115951e-01 1.189919e+00 8.403764e-01 -1.228384e+00 -4.825872e-01 1.633843e+00 3.062971e+00 1.725553e+00 -2.257637e+00 7.782306e-01 4.688246e-02 2.333015e-01 1.285597e-01 1.646445e-01 1.919176e-01 2.312924e-01 7.176394e-02 1.861748e-01 1.694551e-01 1.629549e-01 3.581527e-01 2.794062e-01 -1.219674e-02 -2.064971e-02 1.827319e-02 7.318636e-02 -9.010229e-02 2.317154e-02 4.239022e-02 9.966699e-02 4.168663e-02 -1.299684e-01 -6.635133e-02 7.841996e-03 1.011074e-01 -1.797649e-03
<VARIANCE> 39
 2.254411e+01 3.441486e+01 2.460702e+01 2.058185e+01 2.035247e+01 2.380676e+01 1.732601e+01 1.941021e+01 2.909541e+01 2.278259e+01 3.437315e+01 4.524261e+01 1.132797e-02 1.991713e-01 4.092965e-01 6.894317e-01 8.137568e-01 7.487696e-01 9.446915e-01 1.408250e+00 1.467113e+00 1.557742e+00 1.195543e+00 1.497179e+00 1.524590e+00 1.057155e-04 4.033745e-02 8.587894e-02 1.392413e-01 1.501313e-01 1.375050e-01 2.115229e-01 2.483003e-01 2.513045e-01 2.521510e-01 2.643798e-01 3.334950e-01 2.800578e-01 1.141507e-05
<GCONST> 6.320775e+01
<MIXTURE> 2 4.938627e-01
<MEAN> 39
 1.262120e+01 -4.852228e-01 -8.098746e+00 6.245208e-02 5.037324e+00 5.349540e-01 -4.115336e+00 -3.028089e+00 1.815106e+00 7.468309e+00 1.977896e+00 -3.221184e+00 8.026166e-01 -5.324868e-01 -5.815219e-01 3.964201e-01 1.499924e+00 4.482842e-01 -1.676413e+00 -1.256840e+00 1.458808e+00 2.162127e+00 2.682801e-01 -1.496813e+00 -9.783035e-01 -4.484724e-03 -2.653821e-01 -8.950184e-02 4.299820e-01 2.640448e-01 -5.534876e-01 -7.592847e-01 4.077932e-01 9.044572e-01 -6.306733e-02 -8.518258e-01 -2.991271e-01 4.115780e-01 5.344464e-04
<VARIANCE> 39
 9.939369e+00 3.116926e+01 2.412213e+01 1.948215e+01 2.110363e+01 2.840458e+01 2.523161e+01 2.696543e+01 2.900211e+01 3.011446e+01 3.598757e+01 3.963697e+01 8.108652e-03 2.996402e-01 6.894633e-01 1.201836e+00 1.064362e+00 1.450613e+00 1.666891e+00 2.261769e+00 1.960227e+00 2.051718e+00 2.566514e+00 1.877609e+00 2.667929e+00 1.702348e-04 6.088760e-02 1.238232e-01 2.069694e-01 2.099366e-01 2.548321e-01 3.889486e-01 3.697637e-01 3.354509e-01 3.612750e-01 3.558291e-01 4.152080e-01 3.878397e-01 1.457594e-05
<GCONST> 7.390439e+01
<STATE> 8
<NUMMIXES> 2
<MIXTURE> 1 4.966115e-01
<MEAN> 39
 1.181622e+01 4.123979e+00 -7.242072e+00 -2.364273e+00 1.342661e+00 2.879693e+00 -5.738819e-01 -9.534398e-01 1.118319e-01 3.652031e+00 3.738485e+00 1.007623e-01 7.427287e-01 2.242559e-02 2.303249e-01 5.053289e-01 -1.095346e-01 2.152721e-01 3.681135e-01 3.502987e-01 3.296295e-01 2.776051e-02 1.749132e-01 2.082797e-01 2.489464e-01 -1.845045e-02 -1.227216e-01 -7.701001e-02 2.365360e-01 -1.124112e-02 4.077950e-02 -7.163249e-02 2.001842e-02 9.004990e-02 -2.274395e-02 -1.596629e-01 -1.999820e-01 -4.325095e-02 -2.614184e-03
<VARIANCE> 39
 2.337675e+01 2.572534e+01 2.752646e+01 2.142397e+01 2.313086e+01 1.975181e+01 1.959523e+01 2.109951e+01 2.595835e+01 2.833041e+01 2.913570e+01 3.467460e+01 1.245566e-02 2.585805e-01 6.308206e-01 9.768378e-01 1.055423e+00 8.893168e-01 1.153805e+00 1.453555e+00 1.186655e+00 1.686069e+00 1.460195e+00 1.212941e+00 1.464067e+00 1.336998e-04 4.678059e-02 7.284314e-02 1.794561e-01 1.599068e-01 1.874430e-01 1.748046e-01 2.447840e-01 3.007345e-01 2.772718e-01 2.787114e-01 2.697957e-01 2.181371e-01 1.898038e-05
<GCONST> 6.555615e+01
<MIXTURE> 2 5.033878e-01
<MEAN> 39
 1.181091e+01 -1.947312e+00 -7.555380e+00 2.703752e+00 5.530469e+00 -3.283547e+00 -6.364298e+00 4.100875e-01 5.929534e+00 6.729686e+00 -2.264307e+00 -5.513968e+00 7.989505e-01 -8.917466e-01 -7.331921e-01 1.192554e+00 1.909245e+00 -6.905791e-01 -2.736884e+00 4.294722e-02 3.179005e+00 1.415586e+00 -1.687111e+00 -1.422805e+00 6.242864e-01 -4.045129e-03 -3.396318e-01 8.162071e-02 7.553928e-01 -2.244266e-01 -1.009701e+00 -1.028267e-01 1.166105e+00 2.409131e-01 -9.675771e-01 -7.183735e-01 5.438101e-01 6.876696e-01 2.394144e-04
<VARIANCE> 39
 1.016550e+01 2.851295e+01 2.696090e+01 1.757488e+01 2.035824e+01 2.987664e+01 2.757055e+01 2.710883e+01 3.169479e+01 3.748665e+01 3.619535e+01 3.905665e+01 9.459198e-03 4.514816e-01 8.152515e-01 1.403650e+00 1.485963e+00 1.892357e+00 2.807460e+00 2.680704e+00 2.305446e+00 2.518041e+00 2.590240e+00 2.656469e+00 2.940942e+00 2.060156e-04 9.896007e-02 1.968591e-01 3.211534e-01 2.845984e-01 3.524911e-01 4.279137e-01 4.569520e-01 4.037339e-01 4.094255e-01 5.737573e-01 4.111229e-01 4.797126e-01 2.619523e-05
<GCONST> 8.134396e+01
<STATE> 9
<NUMMIXES> 2
<MIXTURE> 1 4.040019e-01
<MEAN> 39
 1.058253e+01 -2.829120e+00 -5.368308e+00 5.819703e+00 3.763625e+00 -7.953127e+00 -5.170836e+00 6.647532e+00 7.660013e+00 2.241567e+00 -4.571855e+00 -2.601992e+00 7.948143e-01 -1.390558e+00 -5.343479e-01 2.431920e+00 1.156075e+00 -2.542297e+00 -2.493631e+00 2.363829e+00 2.834391e+00 -8.471799e-01 -2.323361e+00 2.146332e-01 1.551751e+00 -2.804742e-03 -3.270192e-01 4.021222e-01 7.965386e-01 -8.804135e-01 -7.938939e-01 9.394748e-01 9.032995e-01 -1.071411e+00 -1.027638e+00 2.257835e-01 8.438198e-01 5.831290e-02 -1.277525e-03
<VARIANCE> 39
 1.161804e+01 2.671539e+01 2.876698e+01 1.567368e+01 2.055900e+01 3.039964e+01 3.637960e+01 2.960564e+01 2.932425e+01 3.910541e+01 3.309646e+01 3.613117e+01 1.019458e-02 5.855526e-01 1.182929e+00 2.277275e+00 2.032146e+00 2.598739e+00 3.362821e+00 3.071747e+00 2.659359e+00 2.801369e+00 3.317157e+00 3.023328e+00 2.550665e+00 2.007969e-04 1.339349e-01 3.118946e-01 4.518396e-01 4.053211e-01 4.076242e-01 5.278746e-01 5.457983e-01 5.293855e-01 5.217443e-01 6.071997e-01 4.550287e-01 5.526574e-01 3.882865e-05
<GCONST> 8.734593e+01
<MIXTURE> 2 5.959976e-01
<MEAN> 39
 1.098567e+01 4.394638e+00 -3.701647e+00 -1.754692e+00 2.971544e+00 3.760795e+00 7.038521e-01 7.124449e-01 1.152460e+00 3.180327e+00 3.050808e+00 3.669500e-02 6.588407e-01 -4.359711e-01 -9.358781e-02 8.827428e-01 3.143366e-01 3.859602e-01 -7.389979e-03 4.693194e-02 2.307743e-01 1.058092e-01 -3.853035e-01 -4.720776e-01 -7.218638e-02 -1.809386e-02 -1.428334e-01 -6.997889e-02 1.444871e-01 1.222353e-01 3.213104e-02 -9.930339e-02 -5.563575e-02 -9.525160e-02 -5.342913e-02 -1.618829e-01 -1.439422e-01 -4.997927e-02 -7.210627e-04
<VARIANCE> 39
 2.471828e+01 2.551857e+01 3.505747e+01 2.261866e+01 2.469979e+01 2.287713e+01 2.062077e+01 2.445140e+01 2.484091e+01 2.960254e+01 2.992526e+01 3.432076e+01 2.053548e-02 4.355170e-01 7.448851e-01 1.578794e+00 1.284476e+00 1.179044e+00 1.626336e+00 1.694544e+00 1.712098e+00 1.721367e+00 2.163030e+00 1.808358e+00 1.870818e+00 2.777351e-04 7.614503e-02 1.134463e-01 2.938946e-01 2.004152e-01 2.374770e-01 2.537830e-01 3.164290e-01 2.580046e-01 3.506962e-01 3.628432e-01 3.291764e-01 3.129817e-01 5.140910e-05
<GCONST> 7.554314e+01
<STATE> 10
<MEAN> 39
 9.397301e+00 -4.471039e-01 -2.947676e+00 2.990113e+00 8.735476e-01 -4.987787e+00 -3.556355e-01 5.529528e+00 2.371333e+00 3.564399e-01 -2.871292e-01 2.075768e-01 7.491399e-01 -1.243957e+00 4.246184e-02 2.423498e+00 -5.134697e-02 -1.698646e+00 -2.671987e-01 1.810929e+00 2.623699e-01 -1.130836e+00 -8.022824e-01 5.781609e-01 5.128419e-01 -1.275270e-02 -2.035303e-01 4.003028e-01 3.152710e-01 -4.753917e-01 1.457713e-01 8.842669e-01 -9.869669e-02 -9.824302e-01 -1.542719e-01 3.918623e-01 1.656983e-01 -2.136070e-01 -4.701661e-03
<VARIANCE> 39
 1.995430e+01 3.904425e+01 3.781224e+01 4.068464e+01 3.269355e+01 7.679120e+01 3.447982e+01 5.241080e+01 3.624010e+01 4.247634e+01 4.191224e+01 3.871238e+01 1.753381e-02 1.189920e+00 1.716325e+00 4.455891e+00 2.439157e+00 5.972449e+00 2.672808e+00 4.898470e+00 2.545829e+00 3.360459e+00 3.063845e+00 3.334792e+00 2.655923e+00 3.724903e-04 1.514184e-01 3.966111e-01 4.005440e-01 7.351879e-01 4.517014e-01 1.116392e+00 5.017171e-01 1.024719e+00 5.532100e-01 7.333910e-01 5.825803e-01 5.282368e-01 5.868928e-05
<GCONST> 9.949120e+01
<STATE> 11
<MEAN> 39
 7.622961e+00 -5.157682e-01 6.174821e-01 2.332895e+00 -1.925187e+00 -4.423623e+00 2.969617e+00 4.670947e+00 1.821206e-01 6.413205e-01 1.459434e+00 -5.721317e-02 7.387741e-01 -1.367519e+00 6.569569e-01 2.648308e+00 -7.613707e-01 -1.120600e+00 1.065000e+00 1.108333e+00 -1.297531e+00 -7.728941e-01 6.782479e-02 4.352534e-01 -4.244613e-02 -1.804054e-02 -1.013702e-01 3.988851e-01 -1.384031e-01 -1.933494e-01 7.075374e-01 7.617943e-01 -6.699600e-01 -6.906813e-01 3.593074e-01 3.234469e-01 -1.711456e-01 -1.837393e-01 -7.675030e-03
<VARIANCE> 39
 2.302363e+01 3.879652e+01 5.173161e+01 3.590712e+01 5.643182e+01 6.807355e+01 4.665138e+01 4.596393e+01 3.558218e+01 3.904954e+01 3.916650e+01 4.171894e+01 1.857722e-02 1.459684e+00 2.863687e+00 4.972930e+00 4.494354e+00 4.631661e+00 3.532115e+00 3.719613e+00 3.826859e+00 3.604047e+00 3.598378e+00 3.663765e+00 2.831435e+00 5.162688e-04 2.458296e-01 4.052910e-01 4.926862e-01 5.488554e-01 8.606087e-01 9.418812e-01 9.528787e-01 7.907571e-01 6.227486e-01 6.743532e-01 6.468097e-01 5.783797e-01 9.479178e-05
<GCONST> 1.046717e+02
<STATE> 12
<MEAN> 39
 6.278413e+00 8.856786e-01 3.587575e+00 4.965537e-01 -2.454412e+00 -1.669475e+00 2.714240e+00 1.314609e+00 1.997824e-01 1.775820e+00 1.202133e+00 -9.684806e-01 7.133085e-01 -1.394979e+00 1.234700e+00 2.137036e+00 -6.147534e-01 2.669982e-01 1.775678e+00 -1.912732e-01 -1.636134e+00 8.724150e-02 1.289424e-01 -1.232767e-01 -5.898284e-02 -2.851646e-02 -9.530877e-02 1.056852e-01 -6.098431e-01 2.290953e-01 8.536860e-01 2.973484e-01 -6.440434e-01 5.704855e-02 4.541564e-01 6.192544e-02 -1.366502e-01 4.251100e-02 -1.099861e-02
<VARIANCE> 39
 2.777961e+01 4.227309e+01 7.174536e+01 3.457395e+01 7.018174e+01 4.977716e+01 4.754412e+01 3.530032e+01 3.596722e+01 3.865020e+01 4.101374e+01 4.265466e+01 2.103587e-02 1.719860e+00 3.698847e+00 3.817642e+00 5.181946e+00 3.152678e+00 5.145204e+00 3.370028e+00 4.796742e+00 3.700445e+00 3.852209e+00 3.825757e+00 3.109004e+00 7.956359e-04 3.693179e-01 4.779367e-01 8.543888e-01 6.081783e-01 1.165999e+00 6.176618e-01 1.025598e+00 5.627841e-01 6.230575e-01 6.606068e-01 6.863595e-01 5.293607e-01 1.788072e-04
<GCONST> 1.075936e+02
<STATE> 13
<MEAN> 39
 4.817858e+00 3.314383e+00 5.779567e+00 -5.922588e-01 -1.164628e+00 2.046051e-01 5.606518e-01 -7.276461e-01 1.648423e+00 1.024447e+00 -2.591614e-01 -6.706240e-01 6.858860e-01 -1.283999e+00 1.186321e+00 1.072122e+00 3.174007e-01 1.473488e+00 1.510504e+00 -9.796048e-01 -8.374051e-01 3.703833e-01 -3.906315e-01 -1.944805e-01 2.940177e-01 -4.329007e-02 -1.560386e-01 -3.812754e-01 -8.389983e-01 4.729062e-01 4.576911e-01 -1.690914e-01 -8.138622e-02 6.728684e-01 2.071003e-01 2.292882e-02 1.037614e-01 1.306561e-01 -1.276087e-02
<VARIANCE> 39
 2.975167e+01 4.511775e+01 8.266677e+01 4.730857e+01 6.213263e+01 4.361962e+01 4.552385e+01 3.994207e+01 4.462689e+01 4.798091e+01 4.341064e+01 4.161759e+01 2.186458e-02 2.680293e+00 3.518586e+00 2.628885e+00 4.104165e+00 3.855798e+00 5.014254e+00 4.334976e+00 3.861389e+00 3.832552e+00 3.618502e+00 3.638320e+00 3.008227e+00 1.543934e-03 3.888808e-01 6.764899e-01 1.080817e+00 1.030520e+00 8.980646e-01 6.498820e-01 9.305363e-01 8.330681e-01 8.471919e-01 8.796499e-01 7.116284e-01 5.617592e-01 3.000367e-04
<GCONST> 1.115148e+02
<STATE> 14
<MEAN> 39
 3.747034e+00 4.461453e+00 6.082159e+00 2.143172e+00 2.035554e+00 1.535421e+00 -6.945513e-01 -6.756549e-01 1.057421e+00 1.715795e-01 3.217086e-01 2.612524e-01 6.140113e-01 -1.870102e+00 -1.176198e-02 -3.574654e-02 7.831406e-01 1.317699e+00 1.105587e+00 -1.340006e-01 4.520826e-01 5.549944e-01 4.801587e-02 2.730395e-01 4.312301e-01 -6.500483e-02 -2.929814e-01 -5.756302e-01 -7.260920e-01 -5.696277e-02 -2.157291e-01 -2.849218e-01 3.370565e-01 6.892719e-01 1.813799e-01 2.092706e-01 1.676277e-01 3.985708e-02 -7.308424e-03
<VARIANCE> 39
 3.613645e+01 4.551043e+01 7.585525e+01 5.014239e+01 4.399582e+01 5.241493e+01 4.459318e+01 4.923634e+01 5.028141e+01 4.716583e+01 4.304201e+01 3.661808e+01 2.580765e-02 2.586369e+00 3.797168e+00 3.278449e+00 4.276264e+00 3.935007e+00 3.911585e+00 3.902321e+00 3.364537e+00 3.257200e+00 3.750093e+00 3.375535e+00 2.779365e+00 3.257571e-03 5.355012e-01 6.101280e-01 7.664028e-01 6.742885e-01 5.841121e-01 8.512873e-01 8.534887e-01 9.043320e-01 8.555151e-01 9.386405e-01 6.964492e-01 5.711523e-01 3.579795e-04
<GCONST> 1.116762e+02
<STATE> 15
<MEAN> 39
 7.921069e-01 3.273841e+00 5.263609e+00 2.824471e+00 3.423259e+00 2.804172e+00 3.884000e-01 9.212047e-01 2.061933e+00 7.168029e-01 9.973505e-01 5.657175e-01 5.274038e-01 -2.270300e+00 -6.415679e-01 -7.802081e-01 1.904922e-01 5.998933e-01 7.251184e-01 3.745944e-01 1.152360e+00 7.007865e-01 3.712214e-01 4.869890e-01 3.783156e-01 -6.757277e-02 4.698304e-02 -2.842134e-01 -4.118029e-01 -2.576600e-01 -4.252356e-01 -3.423520e-01 2.279562e-01 2.899252e-01 -3.372381e-02 1.190397e-01 5.267068e-02 -5.271602e-02 6.661837e-03
<VARIANCE> 39
 4.595470e+01 4.709158e+01 6.254079e+01 5.313857e+01 3.874862e+01 5.553104e+01 4.028831e+01 4.625145e+01 4.313588e+01 4.176973e+01 3.881749e+01 3.484914e+01 4.662210e-02 2.599348e+00 4.260612e+00 4.643311e+00 4.020213e+00 3.424875e+00 3.490711e+00 4.228738e+00 4.476933e+00 3.593539e+00 4.568748e+00 3.575511e+00 2.794775e+00 4.711987e-03 4.589523e-01 4.574899e-01 4.391435e-01 5.932143e-01 5.718302e-01 7.981539e-01 6.097636e-01 6.956027e-01 7.203796e-01 6.999040e-01 6.197904e-01 5.457575e-01 4.332213e-04
<GCONST> 1.107457e+02
<TRANSP> 16
 0.000000e+00 1.000000e+00 0.000000e+00 0.000000e+00 0.000000e+00 0.000000e+00 0.000000e+00 0.000000e+00 0.000000e+00 0.000000e+00 0.000000e+00 0.000000e+00 0.000000e+00 0.000000e+00 0.000000e+00 0.000000e+00
 0.000000e+00 5.688912e-01 4.311088e-01 0.000000e+00 0.000000e+00 0.000000e+00 0.000000e+00 0.000000e+00 0.000000e+00 0.000000e+00 0.000000e+00 0.000000e+00 0.000000e+00 0.000000e+00 0.000000e+00 0.000000e+00
 0.000000e+00 0.000000e+00 5.339860e-01 4.660140e-01 0.000000e+00 0.000000e+00 0.000000e+00 0.000000e+00 0.000000e+00 0.000000e+00 0.000000e+00 0.000000e+00 0.000000e+00 0.000000e+00 0.000000e+00 0.000000e+00
 0.000000e+00 0.000000e+00 0.000000e+00 6.775597e-01 3.224404e-01 0.000000e+00 0.000000e+00 0.000000e+00 0.000000e+00 0.000000e+00 0.000000e+00 0.000000e+00 0.000000e+00 0.000000e+00 0.000000e+00 0.000000e+00
 0.000000e+00 0.000000e+00 0.000000e+00 0.000000e+00 7.671027e-01 2.328973e-01 0.000000e+00 0.000000e+00 0.000000e+00 0.000000e+00 0.000000e+00 0.000000e+00 0.000000e+00 0.000000e+00 0.000000e+00 0.000000e+00
 0.000000e+00 0.000000e+00 0.000000e+00 0.000000e+00 0.000000e+00 5.547214e-01 4.452786e-01 0.000000e+00 0.000000e+00 0.000000e+00 0.000000e+00 0.000000e+00 0.000000e+00 0.000000e+00 0.000000e+00 0.000000e+00
 0.000000e+00 0.000000e+00 0.000000e+00 0.000000e+00 0.000000e+00 0.000000e+00 3.915410e-01 6.084589e-01 0.000000e+00 0.000000e+00 0.000000e+00 0.000000e+00 0.000000e+00 0.000000e+00 0.000000e+00 0.000000e+00
 0.000000e+00 0.000000e+00 0.000000e+00 0.000000e+00 0.000000e+00 0.000000e+00 0.000000e+00 2.381760e-01 7.618240e-01 0.000000e+00 0.000000e+00 0.000000e+00 0.000000e+00 0.000000e+00 0.000000e+00 0.000000e+00
 0.000000e+00 0.000000e+00 0.000000e+00 0.000000e+00 0.000000e+00 0.000000e+00 0.000000e+00 0.000000e+00 3.936246e-01 6.063754e-01 0.000000e+00 0.000000e+00 0.000000e+00 0.000000e+00 0.000000e+00 0.000000e+00
 0.000000e+00 0.000000e+00 0.000000e+00 0.000000e+00 0.000000e+00 0.000000e+00 0.000000e+00 0.000000e+00 0.000000e+00 1.015295e-02 9.898471e-01 0.000000e+00 0.000000e+00 0.000000e+00 0.000000e+00 0.000000e+00
 0.000000e+00 0.000000e+00 0.000000e+00 0.000000e+00 0.000000e+00 0.000000e+00 0.000000e+00 0.000000e+00 0.000000e+00 0.000000e+00 7.950140e-02 9.204986e-01 0.000000e+00 0.000000e+00 0.000000e+00 0.000000e+00
 0.000000e+00 0.000000e+00 0.000000e+00 0.000000e+00 0.000000e+00 0.000000e+00 0.000000e+00 0.000000e+00 0.000000e+00 0.000000e+00 0.000000e+00 9.930287e-03 9.900697e-01 0.000000e+00 0.000000e+00 0.000000e+00
 0.000000e+00 0.000000e+00 0.000000e+00 0.000000e+00 0.000000e+00 0.000000e+00 0.000000e+00 0.000000e+00 0.000000e+00 0.000000e+00 0.000000e+00 0.000000e+00 1.529499e-01 8.470501e-01 0.000000e+00 0.000000e+00
 0.000000e+00 0.000000e+00 0.000000e+00 0.000000e+00 0.000000e+00 0.000000e+00 0.000000e+00 0.000000e+00 0.000000e+00 0.000000e+00 0.000000e+00 0.000000e+00 0.000000e+00 1.087959e-01 8.912041e-01 0.000000e+00
 0.000000e+00 0.000000e+00 0.000000e+00 0.000000e+00 0.000000e+00 0.000000e+00 0.000000e+00 0.000000e+00 0.000000e+00 0.000000e+00 0.000000e+00 0.000000e+00 0.000000e+00 0.000000e+00 3.984732e-02 9.601527e-01
 0.000000e+00 0.000000e+00 0.000000e+00 0.000000e+00 0.000000e+00 0.000000e+00 0.000000e+00 0.000000e+00 0.000000e+00 0.000000e+00 0.000000e+00 0.000000e+00 0.000000e+00 0.000000e+00 0.000000e+00 0.000000e+00
<ENDHMM>
~h "ba"
<BEGINHMM>
<NUMSTATES> 16
<STATE> 2
<NUMMIXES> 2
<MIXTURE> 1 5.722916e-01
<MEAN> 39
 -1.469828e+00 1.353738e+00 2.420561e+00 4.966340e-01 2.883042e+00 3.206411e+00 3.671304e+00 4.785704e+00 4.043262e+00 1.949384e+00 1.888307e+00 2.853609e-01 1.298883e-01 -1.630981e-01 -1.445290e+00 -4.717401e-01 1.426331e-01 4.188466e-01 8.635644e-01 9.259352e-01 8.383660e-01 5.483311e-01 6.914726e-01 6.275864e-01 5.056124e-01 6.103546e-02 7.159581e-01 -4.621029e-01 -2.507132e-01 3.168709e-01 1.743158e-01 -2.953003e-01 -2.053418e-01 -4.220997e-01 -7.020600e-01 -9.649190e-02 -5.373283e-02 2.583833e-01 7.415092e-02
<VARIANCE> 39
 1.361189e+01 4.531354e+01 2.426422e+01 2.772801e+01 3.194448e+01 2.935041e+01 3.763531e+01 3.965058e+01 3.530948e+01 3.611132e+01 3.232832e+01 2.477741e+01 3.713780e-02 2.632984e+00 4.307859e+00 3.154634e+00 2.504075e+00 2.666518e+00 2.978801e+00 3.415772e+00 4.961721e+00 4.618955e+00 4.177292e+00 3.061767e+00 2.628833e+00 1.471456e-02 2.892175e-01 6.906621e-01 5.736626e-01 4.321094e-01 5.693817e-01 5.446711e-01 6.567820e-01 9.741481e-01 9.113489e-01 8.361309e-01 6.468912e-01 4.990977e-01 6.461991e-04
<GCONST> 1.061627e+02
<MIXTURE> 2 4.277049e-01
<MEAN> 39
 3.146871e+00 -2.057847e+00 1.890612e+00 2.383196e+00 4.797060e+00 5.287595e+00 5.405547e+00 5.106780e+00 3.597372e+00 4.379086e+00 4.475409e+00 3.391096e+00 6.735180e-01 1.076509e+00 -3.723678e+00 -2.039543e+00 8.392029e-01 5.342436e-01 -6.318269e-01 -2.346750e-02 -1.034946e+00 -1.900720e+00 4.955848e-01 2.851786e-02 1.077458e+00 2.098304e-01 -5.680828e-01 -5.239910e-01 -2.262955e-01 1.963705e-01 -9.649973e-02 -6.071895e-01 -6.249763e-01 -7.297550e-01 -6.098403e-01 -4.052899e-01 -5.213752e-01 -2.886754e-01 -1.769682e-02
<VARIANCE> 39
 1.805745e+01 4.573582e+01 2.812613e+01 2.641273e+01 2.799862e+01 2.910144e+01 2.839612e+01 3.060893e+01 3.284903e+01 4.809276e+01 3.391252e+01 2.823188e+01 2.686711e-02 2.568342e+00 5.198494e+00 3.907586e+00 2.924031e+00 3.320548e+00 5.022529e+00 4.348711e+00 6.747242e+00 7.225325e+00 5.989614e+00 4.217380e+00 3.655424e+00 3.182818e-03 4.536896e-01 7.785780e-01 5.340459e-01 4.515073e-01 5.444171e-01 5.971965e-01 6.179290e-01 8.515161e-01 8.281311e-01 8.398116e-01 8.972262e-01 6.943724e-01 1.048416e-03
<GCONST> 1.091352e+02
<STATE> 3
<NUMMIXES> 2
<MIXTURE> 1 5.040507e-01
<MEAN> 39
 3.884268e+00 -9.014433e+00 -7.611565e+00 2.582820e+00 5.472414e+00 1.535004e-01 2.883229e+00 5.441904e+00 -6.158215e+00 -4.148311e+00 3.932061e-01 2.803886e+00 8.714103e-01 -1.351072e-01 -2.902640e+00 -2.623598e+00 1.381806e+00 1.398892e+00 -8.241024e-01 -3.348432e-01 -6.512827e-01 -3.626367e+00 -4.052156e-01 4.342873e-01 4.073804e-01 1.082852e-01 -7.836573e-01 3.492276e-01 8.520998e-01 1.646203e-01 -2.003558e-01 -8.205461e-02 -3.006842e-01 -7.273967e-01 5.123445e-01 7.116354e-01 2.478216e-01 -2.948897e-01 -4.941373e-02
<VARIANCE> 39
 8.066150e+00 2.410634e+01 1.721338e+01 1.784082e+01 2.521082e+01 1.722233e+01 2.326213e+01 2.147422e+01 3.294124e+01 2.222151e+01 2.189699e+01 1.706672e+01 3.749315e-03 1.551341e+00 1.640153e+00 2.579878e+00 1.898248e+00 2.173709e+00 2.815392e+00 2.806488e+00 3.162961e+00 2.855262e+00 3.803325e+00 3.090031e+00 2.330319e+00 2.784182e-03 1.847031e-01 3.786437e-01 3.994947e-01 3.260215e-01 4.682756e-01 3.289234e-01 4.768039e-01 5.606425e-01 8.255248e-01 4.617882e-01 5.040095e-01 4.333748e-01 3.338213e-04
<GCONST> 8.850871e+01
<MIXTURE> 2 4.959483e-01
<MEAN> 39
 3.512401e+00 -1.178519e+01 -1.371730e+00 4.830372e+00 5.770191e+00 3.826254e+00 4.861246e+00 -8.003667e-01 6.072880e-01 9.408385e+00 4.717809e+00 5.367193e+00 8.853784e-01 -1.648408e+00 -4.273570e+00 -7.541344e-01 7.973060e-01 -5.979190e-01 -2.043580e+00 -2.045134e+00 -3.201170e+00 -1.233160e+00 -5.187482e-01 -2.039522e+00 -3.762820e-01 9.796448e-02 -8.433484e-01 8.948430e-01 6.616753e-01 -8.291364e-02 -3.535304e-01 -3.774529e-01 -4.701139e-01 2.025318e-01 1.606989e-01 -1.100902e+00 -7.313543e-01 -7.036653e-01 -5.510961e-02
<VARIANCE> 39
 1.196242e+01 3.389346e+01 2.054734e+01 2.724776e+01 1.903720e+01 3.257334e+01 2.299039e+01 3.325138e+01 5.249476e+01 3.337401e+01 2.502066e+01 2.506538e+01 3.671845e-03 2.258241e+00 1.965424e+00 2.345572e+00 2.308712e+00 2.329515e+00 3.578735e+00 2.987382e+00 4.028075e+00 4.939124e+00 3.198680e+00 4.881308e+00 6.571924e+00 3.198880e-03 2.463864e-01 6.137285e-01 4.196432e-01 4.317637e-01 3.643794e-01 6.703623e-01 5.939837e-01 7.873058e-01 1.033610e+00 6.624751e-01 5.355655e-01 5.241411e-01 3.015854e-04
<GCONST> 9.813021e+01
<STATE> 4
<NUMMIXES> 2
<MIXTURE> 1 5.190541e-01
<MEAN> 39
 9.119564e-02 -1.269716e+01 -7.797220e+00 5.386640e+00 6.693881e+00 -1.946704e-01 1.626860e+00 1.221325e+00 -9.839481e+00 -1.261189e+00 3.287848e+00 2.903936e+00 9.444931e-01 -1.340194e+00 -1.272038e+00 2.439162e-01 1.225762e+00 4.628389e-01 -6.601523e-01 -7.507901e-01 -2.014654e+00 -7.595856e-01 1.435687e+00 6.863223e-01 -5.561983e-01 2.379767e-02 -8.846885e-02 7.354929e-01 8.722630e-01 -1.944681e-01 -3.769505e-01 5.071211e-03 -2.978868e-02 -7.203266e-02 1.168554e+00 2.679186e-01 -1.900694e-01 -2.951814e-01 -3.045837e-02
<VARIANCE> 39
 7.260712e+00 2.418550e+01 1.385978e+01 1.916634e+01 2.055932e+01 1.923016e+01 2.416300e+01 1.656748e+01 2.461676e+01 2.154852e+01 2.194664e+01 1.663755e+01 1.841923e-03 3.704413e-01 5.107524e-01 9.606399e-01 9.016836e-01 1.204093e+00 1.217620e+00 1.382804e+00 1.445613e+00 1.892261e+00 1.356505e+00 1.760782e+00 1.778388e+00 2.191500e-04 1.379009e-01 1.296502e-01 1.994634e-01 1.959257e-01 2.120780e-01 2.834415e-01 3.352524e-01 3.357548e-01 3.087145e-01 4.197769e-01 3.411023e-01 2.682281e-01 2.144341e-04
<GCONST> 6.805734e+01
<MIXTURE> 2 4.809453e-01
<MEAN> 39
 -2.157463e+00 -1.535079e+01 3.655167e-01 6.057753e+00 4.829500e+00 1.836289e-01 -2.059816e-01 -5.022705e+00 5.659974e-01 5.711981e+00 -9.851155e-01 2.599809e+00 9.359552e-01 -2.371580e+00 -1.380046e+00 9.394442e-01 5.274718e-01 -1.055488e+00 -1.997058e+00 -2.072902e+00 -1.427175e+00 -2.803052e-01 -2.283346e+00 -2.326860e+00 -1.131274e+00 2.434973e-02 1.532029e-01 1.288903e+00 5.423257e-01 -1.791738e-01 -2.398692e-01 2.161609e-01 3.591018e-01 9.254225e-01 2.055864e-01 -3.999541e-01 3.328306e-01 -1.502817e-01 -3.450495e-02
<VARIANCE> 39
 1.132332e+01 2.861484e+01 2.377036e+01 2.620477e+01 1.646358e+01 3.432137e+01 2.064597e+01 2.829772e+01 4.964305e+01 2.524372e+01 2.763331e+01 3.969262e+01 2.510125e-03 6.011196e-01 1.033043e+00 1.529367e+00 1.628539e+00 1.964583e+00 1.678872e+00 2.288003e+00 2.933417e+00 2.715940e+00 2.388352e+00 3.016909e+00 3.704853e+00 2.518996e-04 2.234818e-01 2.058696e-01 2.760094e-01 3.482662e-01 2.924006e-01 5.424396e-01 4.001887e-01 5.591961e-01 7.441283e-01 3.796276e-01 4.843151e-01 6.058860e-01 2.465055e-04
<GCONST> 8.471853e+01
<STATE> 5
<NUMMIXES> 2
<MIXTURE> 1 4.614742e-01
<MEAN> 39
 -4.293239e+00 -1.553635e+01 1.033719e+00 5.714673e+00 1.746349e+00 -3.592124e+00 -2.399970e+00 -5.533344e+00 -7.472677e-01 1.254180e+00 -3.253692e+00 8.054470e-01 9.454448e-01 -1.017580e+00 -2.162378e-01 8.738871e-01 9.760049e-02 -1.371107e+00 -1.254508e+00 -8.120275e-01 -2.741720e-01 -4.019097e-01 -1.507980e+00 -8.857841e-01 -6.592485e-01 3.976698e-03 5.852986e-01 6.115372e-01 5.575710e-02 -3.811254e-02 1.618257e-01 5.879762e-01 6.632271e-01 5.976291e-01 1.471084e-01 4.447201e-01 6.678655e-01 2.870600e-01 -9.026892e-03
<VARIANCE> 39
 1.199667e+01 3.218835e+01 3.256948e+01 2.800373e+01 2.270540e+01 3.141709e+01 2.424766e+01 2.900275e+01 4.320242e+01 2.908324e+01 3.363298e+01 4.805019e+01 2.492612e-03 3.679174e-01 5.143875e-01 1.038032e+00 1.133339e+00 1.171787e+00 1.408837e+00 1.546893e+00 1.949255e+00 1.740362e+00 1.579002e+00 1.631075e+00 1.491519e+00 8.096829e-05 7.106435e-02 1.328986e-01 1.717124e-01 2.644717e-01 3.066535e-01 2.651663e-01 3.039065e-01 3.241983e-01 3.372626e-01 2.722910e-01 3.770466e-01 4.506729e-01 4.910830e-05
<GCONST> 7.202267e+01
<MIXTURE> 2 5.385237e-01
<MEAN> 39
 -1.333870e+00 -1.382165e+01 -5.976415e+00 7.369643e+00 7.272398e+00 -1.831794e+00 5.538179e-01 -2.261211e+00 -8.636128e+00 1.789682e+00 3.632694e+00 1.009722e+00 9.559215e-01 -4.215455e-01 -2.760818e-01 6.186904e-01 6.878809e-01 3.630557e-02 -6.703207e-01 -3.867883e-01 -7.277572e-01 6.269127e-01 6.221917e-01 -1.614777e-01 -5.027299e-01 2.768427e-03 2.674216e-01 2.670076e-01 1.362013e-02 -1.952372e-01 -1.666236e-01 7.613204e-02 1.592829e-01 4.317395e-01 2.563055e-01 -3.553021e-01 -2.147528e-01 1.228990e-01 -5.527818e-03
<VARIANCE> 39
 8.118462e+00 2.547353e+01 1.558954e+01 1.736011e+01 1.588701e+01 1.650266e+01 1.899984e+01 1.677526e+01 1.993498e+01 2.031791e+01 1.756093e+01 1.721347e+01 1.633598e-03 2.310749e-01 1.986336e-01 3.588560e-01 4.404502e-01 5.056185e-01 6.454103e-01 7.296028e-01 8.834388e-01 8.118943e-01 1.083818e+00 9.467391e-01 6.947752e-01 7.098778e-05 3.969163e-02 5.731567e-02 8.367139e-02 8.145684e-02 7.605670e-02 1.126441e-01 1.141945e-01 1.329617e-01 1.768212e-01 1.493389e-01 1.451522e-01 1.462417e-01 2.143844e-05
<GCONST> 4.439794e+01
<STATE> 6
<NUMMIXES> 2
<MIXTURE> 1 3.735791e-01
<MEAN> 39
 -4.649324e+00 -1.513915e+01 1.968768e+00 6.374301e+00 8.186170e-01 -3.835379e+00 -2.022826e+00 -4.448472e+00 -1.661783e+00 4.601120e-01 -2.127323e+00 1.126083e+00 9.503555e-01 -1.020230e-01 3.199756e-01 7.958274e-01 4.144981e-01 -4.583720e-01 1.000388e-02 3.588367e-01 3.635612e-01 1.044980e-01 -2.531843e-01 1.437055e-01 -7.909747e-02 -8.631872e-04 2.717372e-01 1.401291e-01 -1.363359e-01 -3.233213e-02 2.084581e-01 3.235328e-01 2.528316e-01 1.253507e-01 8.400517e-02 2.705895e-01 2.353098e-01 1.264606e-01 -2.104650e-03
<VARIANCE> 39
 1.312479e+01 3.086981e+01 4.137471e+01 2.405040e+01 2.831692e+01 3.135640e+01 2.267324e+01 3.294400e+01 4.114230e+01 3.162204e+01 3.800264e+01 4.945568e+01 2.323266e-03 2.666278e-01 4.207501e-01 5.574937e-01 8.231530e-01 1.097456e+00 1.125383e+00 1.138254e+00 1.211868e+00 1.245698e+00 1.047192e+00 1.045141e+00 1.039580e+00 4.434385e-05 4.635920e-02 5.673314e-02 1.169855e-01 1.422121e-01 1.895842e-01 1.514794e-01 1.735902e-01 2.034054e-01 2.206614e-01 1.950669e-01 1.866668e-01 1.908329e-01 8.879887e-06
<GCONST> 5.948277e+01
<MIXTURE> 2 6.264191e-01
<MEAN> 39
 -1.701273e+00 -1.277152e+01 -4.478442e+00 8.109084e+00 6.636159e+00 -3.427198e+00 4.832687e-01 -1.545683e+00 -6.165401e+00 8.794612e-01 2.367719e+00 6.327186e-01 9.430566e-01 5.148668e-02 6.505490e-02 1.911883e-01 1.412636e-01 -1.251850e-01 -6.302672e-02 -2.367179e-02 -3.497559e-02 1.476744e-01 2.650958e-02 -1.318442e-01 -2.568940e-03 -3.018924e-03 5.417427e-02 2.865918e-02 -2.680200e-02 -7.216091e-02 -1.975755e-02 9.170970e-02 2.241655e-02 2.582035e-02 -6.538019e-02 -2.507169e-02 4.954058e-03 2.947420e-02 -7.347439e-04
<VARIANCE> 39
 9.013704e+00 3.053502e+01 1.640652e+01 2.259499e+01 1.765477e+01 1.763105e+01 1.972705e+01 1.352840e+01 1.843669e+01 1.956460e+01 1.484243e+01 1.038410e+01 2.260911e-03 7.049140e-02 5.885252e-02 1.015427e-01 1.267885e-01 1.427629e-01 2.099422e-01 2.176643e-01 2.022323e-01 2.745172e-01 2.501134e-01 2.118468e-01 1.648484e-01 3.754082e-05 9.935502e-03 9.697072e-03 1.617260e-02 2.247807e-02 2.088817e-02 2.859901e-02 3.381208e-02 3.602330e-02 3.965406e-02 4.566099e-02 3.756612e-02 2.874886e-02 3.730629e-06
<GCONST> 9.735601e+00
<STATE> 7
<NUMMIXES> 2
<MIXTURE> 1 6.534039e-01
<MEAN> 39
 -2.457870e+00 -1.124010e+01 2.548953e-01 6.496509e+00 2.341716e+00 -2.642884e+00 1.311086e-01 -2.474153e+00 -2.895368e+00 1.103119e+00 -3.245986e-01 5.672942e-01 9.463930e-01 1.621550e-01 2.223468e-01 2.844815e-01 1.928182e-01 -6.894311e-02 2.414359e-01 2.335036e-01 1.200265e-01 1.539183e-01 2.270721e-02 7.467636e-02 4.008066e-02 -3.213722e-03 1.369623e-02 -2.325682e-02 -1.000747e-01 -1.230762e-01 -3.427548e-02 9.268566e-03 -7.318768e-02 -8.565317e-02 -7.087165e-02 -4.047512e-02 -4.697597e-02 -2.252325e-02 -6.438579e-04
<VARIANCE> 39
 1.010007e+01 3.655286e+01 3.183563e+01 2.240118e+01 2.437660e+01 1.679357e+01 1.598941e+01 2.248309e+01 2.881489e+01 2.115536e+01 1.889217e+01 1.922954e+01 2.047623e-03 1.032744e-01 1.697974e-01 3.009529e-01 3.361116e-01 3.912993e-01 4.498594e-01 4.238353e-01 5.679581e-01 5.401983e-01 4.727241e-01 4.158624e-01 4.200651e-01 3.754082e-05 1.864907e-02 3.035018e-02 5.305804e-02 6.406701e-02 7.472565e-02 8.477159e-02 8.775833e-02 9.378190e-02 9.569864e-02 8.516265e-02 6.785285e-02 7.408755e-02 3.730629e-06
<GCONST> 3.375433e+01
<MIXTURE> 2 3.465946e-01
<MEAN> 39
 -4.282936e+00 -1.298644e+01 5.177601e+00 8.036854e+00 4.027535e-01 -1.619092e+00 7.079476e-01 -1.656151e+00 4.685689e-01 1.019262e+00 -1.179750e+00 1.698267e+00 9.439678e-01 -3.640636e-01 -3.449434e-01 -3.213956e-01 -6.148388e-01 -1.054048e+00 -7.637676e-01 -6.610968e-01 -7.015479e-01 -6.991529e-01 -7.993084e-01 -3.222014e-01 -4.739704e-01 -2.433359e-03 -5.263241e-02 -1.753997e-01 -3.186882e-01 -3.235890e-01 -1.243724e-01 -1.904549e-01 -3.083678e-01 -3.133200e-01 -2.325580e-01 -7.766017e-02 -1.160909e-01 -8.756309e-02 -6.743761e-04
<VARIANCE> 39
 1.111275e+01 3.449150e+01 4.226412e+01 2.369624e+01 2.331891e+01 2.610581e+01 2.467059e+01 2.803293e+01 2.568255e+01 2.355943e+01 3.221826e+01 4.069068e+01 2.208908e-03 1.677086e-01 3.457113e-01 5.887420e-01 6.446530e-01 7.562786e-01 9.106710e-01 9.408772e-01 8.942264e-01 7.277238e-01 8.266058e-01 8.074197e-01 7.592831e-01 3.754082e-05 4.070476e-02 6.512809e-02 9.411816e-02 9.556650e-02 1.378784e-01 1.686185e-01 1.631159e-01 1.784327e-01 1.413589e-01 1.391923e-01 1.298377e-01 1.485189e-01 3.730629e-06
<GCONST> 5.108643e+01
<STATE> 8
<NUMMIXES> 2
<MIXTURE> 1 3.561703e-01
<MEAN> 39
 -5.931284e+00 -1.567490e+01 2.157305e+00 4.065649e+00 -4.237721e+00 -6.739376e+00 -4.211933e+00 -6.985646e+00 -3.767408e+00 -3.019572e+00 -5.046658e+00 -1.753441e+00 9.249253e-01 -5.123546e-03 3.224234e-02 -7.265069e-02 -2.640533e-01 -1.965944e-01 -7.549965e-02 -3.024941e-01 -2.406181e-01 -1.485788e-01 -1.747566e-01 -6.662903e-02 -1.319850e-01 -3.605218e-03 2.312407e-01 3.073874e-01 2.509412e-01 2.871703e-01 5.580682e-01 5.384112e-01 3.944143e-01 3.897052e-01 4.357059e-01 3.904933e-01 3.158164e-01 2.727259e-01 -4.036654e-04
<VARIANCE> 39
 1.346165e+01 2.857226e+01 3.478094e+01 2.254620e+01 2.253914e+01 2.575767e+01 2.295658e+01 2.599361e+01 2.397688e+01 1.981466e+01 3.690641e+01 4.721123e+01 2.986501e-03 2.081753e-01 3.575204e-01 5.050252e-01 7.256032e-01 1.072848e+00 1.039601e+00 9.882330e-01 1.028780e+00 8.759403e-01 7.920136e-01 6.577748e-01 6.790333e-01 3.754082e-05 2.357286e-02 4.096710e-02 7.246151e-02 9.939281e-02 9.011078e-02 1.155760e-01 1.082184e-01 1.121468e-01 9.728532e-02 9.812526e-02 1.244672e-01 1.056088e-01 3.730629e-06
<GCONST> 4.769022e+01
<MIXTURE> 2 6.438267e-01
<MEAN> 39
 -2.824034e+00 -1.378518e+01 1.231522e+00 7.601506e+00 1.294639e+00 -3.430503e+00 -9.095076e-01 -4.913298e+00 -3.733366e+00 -1.669950e-01 -1.681027e+00 -1.081771e+00 9.106216e-01 1.224423e-01 1.664491e-01 1.088498e-01 -1.878685e-01 -1.624016e-01 2.038337e-01 -8.885548e-02 -1.350197e-01 -6.746347e-02 -4.918503e-02 -9.792065e-02 -9.352472e-02 -4.654580e-03 3.469910e-02 3.630280e-02 -3.598412e-02 -1.241939e-01 2.473336e-02 8.045994e-02 -2.288955e-02 -4.341223e-02 -2.838744e-02 -6.646873e-03 -4.910245e-02 4.867130e-02 -7.401462e-04
<VARIANCE> 39
 1.449487e+01 2.058641e+01 4.009171e+01 2.136706e+01 3.041167e+01 2.611089e+01 2.274391e+01 2.737653e+01 2.985428e+01 2.990583e+01 3.499948e+01 2.478319e+01 3.783350e-03 1.512778e-01 1.698510e-01 3.375372e-01 3.983053e-01 5.118352e-01 5.710045e-01 5.777236e-01 6.864695e-01 5.465925e-01 6.494734e-01 5.260591e-01 4.914958e-01 3.754082e-05 1.687252e-02 2.812020e-02 4.425457e-02 6.728006e-02 7.270771e-02 9.208626e-02 8.925322e-02 9.935821e-02 9.505348e-02 1.025748e-01 8.028263e-02 7.359981e-02 3.730629e-06
<GCONST> 3.935873e+01
<STATE> 9
<NUMMIXES> 2
<MIXTURE> 1 6.699772e-01
<MEAN> 39
 -1.305622e+00 -1.004521e+01 2.310298e-01 5.446718e+00 -4.818273e-01 -2.547478e+00 -1.671288e+00 -4.088995e+00 -4.165151e+00 -9.617919e-01 -1.237121e+00 -8.671091e-01 8.716523e-01 3.231121e-01 4.772615e-01 2.222052e-01 -1.435976e-01 -3.991205e-02 3.864238e-01 -3.998883e-02 -1.668638e-01 1.840872e-02 4.179854e-03 1.017933e-02 1.191960e-01 -9.468123e-03 9.733153e-02 1.635340e-01 8.587211e-02 -3.678285e-02 1.087611e-01 1.616542e-01 1.124300e-01 4.321947e-02 7.850222e-02 1.990194e-02 2.204827e-02 6.363062e-02 -1.265283e-03
<VARIANCE> 39
 1.487952e+01 4.096699e+01 2.932816e+01 3.180117e+01 3.333479e+01 2.553250e+01 2.135909e+01 2.430219e+01 2.406814e+01 2.208359e+01 2.645004e+01 2.737237e+01 7.035776e-03 2.972124e-01 4.213392e-01 6.825468e-01 9.417194e-01 1.045633e+00 1.116157e+00 1.238388e+00 1.221300e+00 1.006008e+00 1.100278e+00 9.736660e-01 9.114445e-01 7.202886e-05 4.035344e-02 5.290706e-02 7.462981e-02 1.425339e-01 1.345132e-01 1.521152e-01 1.461574e-01 1.564105e-01 1.437509e-01 1.711379e-01 1.537640e-01 1.426824e-01 6.165350e-06
<GCONST> 5.644147e+01
<MIXTURE> 2 3.300225e-01
<MEAN> 39
 -3.228627e+00 -1.028768e+01 6.319595e+00 6.795159e+00 -7.127162e-01 -4.785835e-01 4.602116e-01 -1.840678e+00 1.175576e+00 6.721409e-02 -7.931977e-01 1.451369e+00 8.991809e-01 2.460253e-01 3.523864e-01 -1.529410e-01 -1.578401e-01 4.098900e-01 3.229663e-01 -3.002033e-01 -9.345482e-03 2.140994e-01 3.879099e-02 2.842225e-01 1.774587e-01 -6.717009e-03 -1.304898e-01 -1.922262e-01 -4.564015e-01 -4.364864e-01 -2.473909e-01 -3.560654e-01 -4.869711e-01 -4.006702e-01 -3.192571e-01 -2.401815e-01 -1.176882e-01 -1.574242e-01 -8.201395e-04
<VARIANCE> 39
 1.231910e+01 4.051031e+01 2.571520e+01 2.246645e+01 2.053789e+01 2.329069e+01 2.452654e+01 2.236822e+01 1.938055e+01 1.916220e+01 3.078761e+01 3.717380e+01 5.096134e-03 2.998288e-01 4.876740e-01 7.853951e-01 9.362406e-01 1.280809e+00 1.093527e+00 1.374052e+00 1.052676e+00 1.290575e+00 1.048194e+00 9.831597e-01 7.942570e-01 5.654680e-05 3.409993e-02 5.730722e-02 8.481447e-02 9.636501e-02 1.358324e-01 1.196719e-01 1.275838e-01 1.396285e-01 1.704678e-01 1.621836e-01 1.807095e-01 1.529527e-01 3.730629e-06
<GCONST> 5.429025e+01
<STATE> 10
<MEAN> 39
 -2.789983e+00 -1.290272e+01 1.281801e+00 5.818241e+00 1.612904e+00 -1.788590e+00 -2.800879e+00 -4.834037e+00 -2.897009e+00 1.415458e-01 -1.621145e-01 1.464069e+00 8.975372e-01 3.610374e-01 5.489602e-01 -5.021150e-01 -1.167771e+00 1.436440e-01 6.353512e-01 -4.500320e-01 -5.657872e-01 -1.627641e-01 -2.784911e-01 1.281927e-02 -3.839062e-02 -9.401942e-03 2.204866e-01 3.185089e-01 -5.403877e-02 -2.813470e-01 -8.473901e-02 1.497153e-01 1.751861e-01 6.313103e-02 2.358067e-02 -1.474826e-01 -2.369441e-02 -5.891865e-02 -3.101993e-03
<VARIANCE> 39
 1.994245e+01 3.829450e+01 4.202984e+01 2.874813e+01 3.077748e+01 2.684484e+01 3.518078e+01 3.032522e+01 5.200933e+01 3.512052e+01 4.240322e+01 4.439488e+01 6.335245e-03 4.818206e-01 7.178345e-01 1.956636e+00 1.663165e+00 1.718952e+00 2.057543e+00 2.585188e+00 2.040384e+00 1.775999e+00 1.929721e+00 2.152992e+00 1.746659e+00 9.963524e-05 7.995101e-02 9.107063e-02 1.659666e-01 2.257389e-01 2.443368e-01 2.515892e-01 2.993201e-01 2.514085e-01 3.729455e-01 3.418116e-01 3.534181e-01 2.976991e-01 1.472211e-05
<GCONST> 7.645668e+01
<STATE> 11
<MEAN> 39
 -1.692127e+00 -1.146366e+01 -3.615198e-01 3.220823e+00 2.018979e+00 -3.821513e-01 -3.258803e+00 -6.539517e+00 -4.078741e+00 -5.551212e-01 -3.275295e-01 2.208831e-01 8.787690e-01 8.946154e-01 1.316183e+00 -2.943936e-01 -1.517541e+00 -4.407022e-02 1.018990e+00 4.245923e-01 -7.623947e-02 5.587833e-03 -4.880230e-01 4.044330e-02 9.380469e-02 -1.509774e-02 2.524844e-01 4.820715e-01 3.192791e-01 8.415774e-02 -2.236199e-01 -8.762549e-02 2.674034e-01 4.093851e-01 2.548075e-01 -5.003739e-02 -7.403592e-02 -1.144352e-02 -5.518301e-03
<VARIANCE> 39
 1.958556e+01 3.982265e+01 2.948626e+01 3.575827e+01 3.272272e+01 3.378093e+01 4.925944e+01 3.900087e+01 4.226573e+01 3.155000e+01 3.615491e+01 3.048402e+01 7.374280e-03 6.788946e-01 9.033134e-01 2.341066e+00 3.024876e+00 2.103810e+00 2.127441e+00 2.529137e+00 2.461215e+00 2.657205e+00 2.660008e+00 3.687616e+00 2.299420e+00 1.600292e-04 1.225629e-01 1.482929e-01 1.938671e-01 2.627439e-01 4.396135e-01 4.180902e-01 4.956384e-01 4.381929e-01 4.624799e-01 4.073698e-01 4.114699e-01 3.734602e-01 3.235119e-05
<GCONST> 8.521862e+01
<STATE> 12
<MEAN> 39
 -1.190254e-01 -9.081398e+00 -9.267756e-01 4.461175e-01 1.910440e+00 1.903482e+00 -1.325646e+00 -5.398164e+00 -3.959761e+00 -1.567242e+00 -3.474863e-01 9.340104e-01 8.560666e-01 1.219537e+00 2.081513e+00 3.745148e-01 -1.333608e+00 -8.719060e-01 3.338191e-01 6.405784e-01 6.871027e-01 6.459819e-01 -6.800144e-01 -4.345260e-01 -1.536540e-01 -2.339079e-02 -3.318617e-02 2.473591e-01 4.793150e-01 6.252322e-01 -1.228929e-01 -4.286304e-01 -1.162369e-01 2.394155e-01 2.978024e-01 1.999811e-01 -4.243856e-03 -1.347580e-01 -7.714193e-03
<VARIANCE> 39
 1.635285e+01 3.849330e+01 3.573202e+01 6.216756e+01 3.266371e+01 4.439648e+01 5.367613e+01 4.749693e+01 4.010099e+01 3.519653e+01 4.629399e+01 3.275915e+01 8.286431e-03 1.053806e+00 1.440996e+00 2.047259e+00 2.995918e+00 3.069722e+00 2.587700e+00 2.538780e+00 3.093314e+00 3.871520e+00 3.145674e+00 3.551659e+00 2.755342e+00 2.713760e-04 1.285606e-01 1.607196e-01 3.713268e-01 6.348025e-01 5.235064e-01 7.173813e-01 6.444435e-01 6.113022e-01 5.380998e-01 5.739947e-01 7.531582e-01 5.367894e-01 8.611170e-05
<GCONST> 9.499206e+01
<STATE> 13
<MEAN> 39
 2.084555e+00 -5.976659e+00 1.300656e-02 -2.907556e-01 -2.062840e-01 8.463622e-01 -4.234122e-01 -4.022045e+00 -2.708606e+00 -2.237959e+00 -1.492092e+00 1.932665e-01 8.225468e-01 1.009581e+00 2.189147e+00 1.285598e+00 2.017853e-01 -6.265858e-01 -2.775415e-01 6.436354e-02 6.217898e-01 9.419482e-01 3.509761e-02 -1.912286e-01 -2.948786e-01 -3.423586e-02 -4.424740e-01 -1.872070e-01 2.598522e-01 7.778934e-01 3.500731e-01 -1.140451e-01 -1.923334e-01 6.724524e-02 4.658915e-02 3.516264e-01 2.384941e-01 -1.253375e-02 -1.076067e-02
<VARIANCE> 39
 1.541474e+01 4.196808e+01 4.225816e+01 7.929726e+01 3.729641e+01 3.624340e+01 5.554377e+01 4.521328e+01 3.989259e+01 3.645853e+01 4.632880e+01 2.875528e+01 9.951446e-03 1.125194e+00 1.651585e+00 1.955172e+00 2.501818e+00 3.094081e+00 3.950848e+00 2.952111e+00 3.146508e+00 3.376098e+00 2.557342e+00 3.213358e+00 3.036234e+00 5.800357e-04 2.113279e-01 1.990785e-01 3.700760e-01 8.283888e-01 4.964231e-01 4.655558e-01 6.793876e-01 7.436264e-01 6.280656e-01 6.383252e-01 8.001837e-01 4.313327e-01 1.948920e-04
<GCONST> 9.807246e+01
<STATE> 14
<MEAN> 39
 3.367825e+00 -1.860924e+00 3.641560e+00 1.523313e+00 -1.593129e+00 -7.137055e-01 -2.216630e+00 -4.313191e+00 -1.363641e+00 -1.626687e+00 -1.196092e+00 -2.334843e-01 7.592701e-01 -1.563635e-02 1.369432e+00 1.406964e+00 1.413865e+00 3.861523e-01 -1.905579e-02 -1.837770e-01 3.721461e-01 5.576260e-01 4.841619e-01 2.065239e-01 -1.271819e-01 -5.076892e-02 -6.553916e-01 -5.777369e-01 -2.917454e-01 3.099048e-01 4.658570e-01 2.917351e-01 1.321451e-01 1.746551e-01 -5.914102e-02 2.697138e-01 2.798222e-01 9.005859e-02 -1.220443e-02
<VARIANCE> 39
 1.462609e+01 4.590300e+01 4.751278e+01 6.363733e+01 4.013514e+01 3.419447e+01 5.501768e+01 4.621816e+01 4.068430e+01 4.056232e+01 4.069432e+01 3.314582e+01 1.289826e-02 1.110886e+00 1.629626e+00 2.064201e+00 4.322997e+00 2.616977e+00 3.204283e+00 3.929240e+00 3.890791e+00 3.280488e+00 3.119702e+00 3.572478e+00 2.587360e+00 1.403583e-03 3.400730e-01 2.949740e-01 3.849346e-01 5.068482e-01 5.584725e-01 5.782710e-01 6.393357e-01 7.220002e-01 6.640103e-01 6.497911e-01 6.494682e-01 5.272515e-01 2.514885e-04
<GCONST> 1.011104e+02
<STATE> 15
<MEAN> 39
 1.848125e+00 -2.237151e+00 5.475157e+00 6.427338e+00 2.149120e+00 4.016137e-01 -1.828832e+00 -3.776022e+00 -1.771956e+00 -1.428041e-01 -2.196449e-01 3.051441e-01 6.483981e-01 -1.386712e+00 -3.161224e-02 -1.309682e-02 9.557897e-01 9.352274e-01 8.600020e-01 5.484395e-01 1.218242e+00 7.789259e-01 7.671379e-01 8.520514e-01 1.192109e-01 -7.935876e-02 -4.681130e-01 -4.820704e-01 -7.623191e-01 -5.200033e-01 -4.721200e-02 2.438232e-01 2.516885e-01 2.857126e-01 9.974896e-02 1.010082e-01 1.335748e-01 3.294354e-02 -2.691774e-03
<VARIANCE> 39
 1.439397e+01 4.541465e+01 5.131350e+01 5.990950e+01 3.699185e+01 3.483881e+01 4.939899e+01 4.807278e+01 5.229684e+01 3.715953e+01 3.453668e+01 2.967113e+01 2.313402e-02 2.192788e+00 2.428103e+00 2.244750e+00 4.190589e+00 2.962067e+00 3.287697e+00 4.123957e+00 4.353365e+00 3.612512e+00 4.128678e+00 4.033649e+00 2.934422e+00 3.507986e-03 2.415688e-01 3.879917e-01 4.685647e-01 5.484892e-01 5.360883e-01 6.235059e-01 6.635348e-01 7.898832e-01 8.075424e-01 5.828949e-01 5.636249e-01 5.259200e-01 3.434500e-04
<GCONST> 1.050471e+02
<TRANSP> 16
 0.000000e+00 1.000000e+00 0.000000e+00 0.000000e+00 0.000000e+00 0.000000e+00 0.000000e+00 0.000000e+00 0.000000e+00 0.000000e+00 0.000000e+00 0.000000e+00 0.000000e+00 0.000000e+00 0.000000e+00 0.000000e+00
 0.000000e+00 6.678129e-01 3.321871e-01 0.000000e+00 0.000000e+00 0.000000e+00 0.000000e+00 0.000000e+00 0.000000e+00 0.000000e+00 0.000000e+00 0.000000e+00 0.000000e+00 0.000000e+00 0.000000e+00 0.000000e+00
 0.000000e+00 0.000000e+00 3.906139e-01 6.093861e-01 0.000000e+00 0.000000e+00 0.000000e+00 0.000000e+00 0.000000e+00 0.000000e+00 0.000000e+00 0.000000e+00 0.000000e+00 0.000000e+00 0.000000e+00 0.000000e+00
 0.000000e+00 0.000000e+00 0.000000e+00 3.633012e-01 6.366988e-01 0.000000e+00 0.000000e+00 0.000000e+00 0.000000e+00 0.000000e+00 0.000000e+00 0.000000e+00 0.000000e+00 0.000000e+00 0.000000e+00 0.000000e+00
 0.000000e+00 0.000000e+00 0.000000e+00 0.000000e+00 5.023719e-01 4.976281e-01 0.000000e+00 0.000000e+00 0.000000e+00 0.000000e+00 0.000000e+00 0.000000e+00 0.000000e+00 0.000000e+00 0.000000e+00 0.000000e+00
 0.000000e+00 0.000000e+00 0.000000e+00 0.000000e+00 0.000000e+00 6.988230e-01 3.011770e-01 0.000000e+00 0.000000e+00 0.000000e+00 0.000000e+00 0.000000e+00 0.000000e+00 0.000000e+00 0.000000e+00 0.000000e+00
 0.000000e+00 0.000000e+00 0.000000e+00 0.000000e+00 0.000000e+00 0.000000e+00 6.482060e-01 3.517940e-01 0.000000e+00 0.000000e+00 0.000000e+00 0.000000e+00 0.000000e+00 0.000000e+00 0.000000e+00 0.000000e+00
 0.000000e+00 0.000000e+00 0.000000e+00 0.000000e+00 0.000000e+00 0.000000e+00 0.000000e+00 6.448176e-01 3.551824e-01 0.000000e+00 0.000000e+00 0.000000e+00 0.000000e+00 0.000000e+00 0.000000e+00 0.000000e+00
 0.000000e+00 0.000000e+00 0.000000e+00 0.000000e+00 0.000000e+00 0.000000e+00 0.000000e+00 0.000000e+00 6.699221e-01 3.300779e-01 0.000000e+00 0.000000e+00 0.000000e+00 0.000000e+00 0.000000e+00 0.000000e+00
 0.000000e+00 0.000000e+00 0.000000e+00 0.000000e+00 0.000000e+00 0.000000e+00 0.000000e+00 0.000000e+00 0.000000e+00 3.341992e-01 6.658007e-01 0.000000e+00 0.000000e+00 0.000000e+00 0.000000e+00 0.000000e+00
 0.000000e+00 0.000000e+00 0.000000e+00 0.000000e+00 0.000000e+00 0.000000e+00 0.000000e+00 0.000000e+00 0.000000e+00 0.000000e+00 2.128998e-01 7.871002e-01 0.000000e+00 0.000000e+00 0.000000e+00 0.000000e+00
 0.000000e+00 0.000000e+00 0.000000e+00 0.000000e+00 0.000000e+00 0.000000e+00 0.000000e+00 0.000000e+00 0.000000e+00 0.000000e+00 0.000000e+00 1.988049e-01 8.011951e-01 0.000000e+00 0.000000e+00 0.000000e+00
 0.000000e+00 0.000000e+00 0.000000e+00 0.000000e+00 0.000000e+00 0.000000e+00 0.000000e+00 0.000000e+00 0.000000e+00 0.000000e+00 0.000000e+00 0.000000e+00 4.919257e-02 9.508075e-01 0.000000e+00 0.000000e+00
 0.000000e+00 0.000000e+00 0.000000e+00 0.000000e+00 0.000000e+00 0.000000e+00 0.000000e+00 0.000000e+00 0.000000e+00 0.000000e+00 0.000000e+00 0.000000e+00 0.000000e+00 2.953769e-01 7.046231e-01 0.000000e+00
 0.000000e+00 0.000000e+00 0.000000e+00 0.000000e+00 0.000000e+00 0.000000e+00 0.000000e+00 0.000000e+00 0.000000e+00 0.000000e+00 0.000000e+00 0.000000e+00 0.000000e+00 0.000000e+00 3.293826e-01 6.706175e-01
 0.000000e+00 0.000000e+00 0.000000e+00 0.000000e+00 0.000000e+00 0.000000e+00 0.000000e+00 0.000000e+00 0.000000e+00 0.000000e+00 0.000000e+00 0.000000e+00 0.000000e+00 0.000000e+00 0.000000e+00 0.000000e+00
<ENDHMM>
~h "qi"
<BEGINHMM>
<NUMSTATES> 16
<STATE> 2
<NUMMIXES> 2
<MIXTURE> 1 5.951815e-01
<MEAN> 39
 -1.034359e+01 -1.712727e-01 -2.157360e-01 9.700139e+00 4.248509e+00 8.615767e+00 6.407837e+00 6.998299e+00 4.302161e+00 5.109204e+00 3.538779e+00 2.237694e+00 3.035643e-01 -1.613047e+00 9.875031e-01 -8.015611e-01 5.986987e-01 6.825215e-01 2.166337e-01 4.788723e-01 1.503257e-01 -1.016152e-01 -9.768366e-02 -2.853922e-02 1.359410e-02 4.582199e-02 4.529797e-01 -1.034314e-01 1.805068e-01 -4.245614e-01 -4.416653e-02 -2.588501e-01 -2.192635e-01 -2.919909e-01 -1.255480e-01 -2.472282e-01 -9.911619e-02 -7.560283e-02 5.215061e-03
<VARIANCE> 39
 1.808118e+01 3.501961e+01 3.189915e+01 1.885530e+01 2.380436e+01 2.577274e+01 2.540495e+01 2.759214e+01 2.539722e+01 2.378703e+01 2.809894e+01 2.517648e+01 1.638135e-02 9.108276e-01 2.223577e+00 1.488055e+00 1.793083e+00 1.771554e+00 2.003177e+00 2.140692e+00 2.034526e+00 2.213287e+00 2.377647e+00 1.958145e+00 2.041091e+00 8.340831e-04 1.992713e-01 4.271147e-01 3.414849e-01 2.872555e-01 3.537629e-01 4.440151e-01 5.154700e-01 4.742537e-01 4.882777e-01 4.329338e-01 4.331104e-01 3.785155e-01 3.533329e-04
<GCONST> 8.737910e+01
<MIXTURE> 2 4.048136e-01
<MEAN> 39
 -6.323987e+00 -2.167749e+00 7.138147e-01 6.219236e+00 1.643779e+00 6.318746e+00 3.912282e+00 4.672851e+00 3.389540e+00 4.070707e+00 3.551625e+00 2.307710e+00 2.805503e-01 -3.324156e+00 -6.160787e-01 -2.188008e+00 6.207608e-01 3.618949e-01 1.112100e+00 1.314226e+00 1.785525e+00 1.195467e+00 1.077256e+00 8.052242e-01 2.835759e-01 -5.546763e-02 4.549388e-01 7.040623e-01 1.867175e-01 -2.582116e-01 -6.275436e-02 -4.130271e-01 -2.945497e-01 -4.210977e-01 -2.324949e-01 -3.790677e-01 -3.327277e-01 -2.097653e-01 4.119661e-02
<VARIANCE> 39
 2.469198e+01 4.271562e+01 3.022941e+01 2.353200e+01 2.251115e+01 2.534312e+01 2.767830e+01 3.355224e+01 2.652493e+01 2.905647e+01 2.608175e+01 2.548592e+01 1.675618e-02 1.748296e+00 3.539190e+00 2.834446e+00 2.741558e+00 2.625152e+00 3.640995e+00 4.599562e+00 3.983957e+00 3.693716e+00 3.617768e+00 3.120080e+00 2.841353e+00 3.308082e-03 3.745877e-01 5.267328e-01 5.279641e-01 5.208538e-01 4.718896e-01 5.686199e-01 6.031339e-01 6.255466e-01 6.823114e-01 6.911759e-01 5.129699e-01 5.228939e-01 2.042855e-04
<GCONST> 9.977737e+01
<STATE> 3
<NUMMIXES> 2
<MIXTURE> 1 5.414036e-01
<MEAN> 39
 -1.163389e+01 6.088180e-01 1.130124e-02 9.255395e+00 7.114892e+00 9.893000e+00 7.753703e+00 7.727921e+00 4.583788e+00 4.552468e+00 3.818973e+00 3.594445e-01 4.235178e-01 -8.889549e-02 1.844871e-01 -2.735436e-01 -2.819806e-01 5.952414e-02 -5.646488e-02 8.244589e-02 5.928800e-02 3.445298e-02 -1.370590e-01 1.797795e-02 -1.826414e-01 1.757599e-02 1.799353e-01 -2.041446e-03 2.486456e-02 -1.354346e-01 -1.957307e-01 -1.420416e-01 -1.319523e-01 -3.685611e-02 -1.607379e-04 1.901955e-02 2.982856e-02 6.439462e-02 -4.636242e-03
<VARIANCE> 39
 1.308349e+01 2.991611e+01 1.914603e+01 1.404914e+01 1.893529e+01 2.058603e+01 2.190734e+01 2.601389e+01 2.919203e+01 2.755189e+01 4.124157e+01 3.660955e+01 1.457281e-02 3.874973e-01 5.587213e-01 8.767233e-01 1.177437e+00 1.505044e+00 1.684963e+00 1.949923e+00 1.893936e+00 2.273809e+00 2.174600e+00 1.987141e+00 1.839202e+00 3.971916e-04 8.390981e-02 1.250531e-01 1.678101e-01 2.201259e-01 3.055315e-01 3.311329e-01 3.768887e-01 3.849531e-01 4.886926e-01 4.484262e-01 4.332109e-01 4.031059e-01 4.688812e-05
<GCONST> 7.582796e+01
<MIXTURE> 2 4.585907e-01
<MEAN> 39
 -1.488163e+01 5.966282e-01 -6.341234e+00 4.934919e+00 2.301863e+00 4.066267e+00 4.323466e+00 3.185535e+00 4.039116e+00 2.185840e+00 3.057700e+00 3.179811e+00 4.736815e-01 -2.418831e-01 2.312201e-01 -1.578173e-01 -4.388025e-01 2.440194e-01 -2.282506e-01 8.779287e-02 -1.508680e-01 2.365767e-01 -2.312410e-01 5.260372e-02 -1.244561e-01 1.705379e-02 4.085377e-01 1.614401e-01 3.675723e-01 7.253969e-02 2.122415e-02 -4.091362e-03 -1.042513e-01 -6.928103e-02 -5.974557e-02 -6.500241e-02 -6.324704e-02 -1.032447e-01 -2.090484e-03
<VARIANCE> 39
 1.533264e+01 3.009470e+01 1.682877e+01 1.861263e+01 1.610451e+01 2.159339e+01 2.530403e+01 2.955711e+01 2.584205e+01 2.999728e+01 2.692755e+01 2.576476e+01 9.584313e-03 6.065280e-01 8.804814e-01 1.043430e+00 1.219765e+00 1.437935e+00 1.592197e+00 1.935749e+00 2.198160e+00 2.132988e+00 2.062422e+00 2.023258e+00 1.828471e+00 5.089911e-04 1.746661e-01 2.486235e-01 2.159993e-01 2.718487e-01 2.807390e-01 3.650566e-01 4.661433e-01 4.607908e-01 4.642917e-01 4.792407e-01 4.350560e-01 3.976346e-01 1.507921e-04
<GCONST> 7.982702e+01
<STATE> 4
<NUMMIXES> 2
<MIXTURE> 1 5.564105e-01
<MEAN> 39
 -1.198688e+01 2.378486e+00 -1.134265e+00 8.414516e+00 7.175438e+00 9.529546e+00 8.252260e+00 8.443556e+00 4.491055e+00 4.295615e+00 3.761750e+00 5.421256e-02 4.508563e-01 4.217407e-01 5.497412e-01 -1.092643e-02 -5.101335e-01 -3.593232e-01 -5.895418e-01 -4.406076e-01 -2.527505e-02 4.623332e-02 -5.148494e-03 2.301916e-01 1.598266e-01 4.272907e-03 7.912480e-01 5.051104e-01 1.136009e-01 -6.237903e-01 -9.997174e-01 -1.155307e+00 -1.024453e+00 -6.460229e-01 -2.573942e-01 -5.659893e-02 4.587941e-02 3.240208e-01 2.218330e-02
<VARIANCE> 39
 1.530002e+01 2.626989e+01 1.798404e+01 1.803279e+01 1.778418e+01 2.410324e+01 2.292668e+01 2.698731e+01 3.580145e+01 3.354702e+01 4.210950e+01 3.285926e+01 1.066045e-02 4.570362e-01 6.090050e-01 7.777148e-01 1.244916e+00 1.745269e+00 1.677402e+00 2.009996e+00 1.809364e+00 2.444769e+00 2.173202e+00 1.910958e+00 1.731506e+00 5.685100e-04 1.152576e-01 1.160752e-01 2.024941e-01 3.400498e-01 3.294686e-01 3.668168e-01 4.489133e-01 4.985175e-01 7.301100e-01 6.059156e-01 5.660998e-01 5.922008e-01 1.450518e-04
<GCONST> 8.082709e+01
<MIXTURE> 2 4.435885e-01
<MEAN> 39
 -1.481941e+01 1.496416e+00 -6.376534e+00 4.005666e+00 3.375959e+00 3.571985e+00 5.052120e+00 3.117239e+00 5.696538e+00 1.442430e+00 4.161621e+00 3.210168e+00 4.703476e-01 1.743841e+00 1.970827e+00 1.411126e+00 -2.547915e-01 -4.355094e-01 -1.292848e+00 -1.435076e+00 -1.506463e+00 -8.422413e-01 -1.087566e+00 -8.452503e-01 -8.943608e-01 4.139634e-02 1.121537e+00 8.378839e-01 6.418307e-01 -4.484666e-01 -7.325230e-01 -6.801728e-01 -9.647055e-01 -4.513618e-01 -3.245414e-01 -3.937842e-01 -2.574975e-01 -5.442445e-01 2.944001e-02
<VARIANCE> 39
 1.264155e+01 2.564754e+01 1.547752e+01 1.717782e+01 1.542610e+01 2.238647e+01 2.858541e+01 3.107496e+01 2.675763e+01 3.133391e+01 2.797878e+01 2.881638e+01 7.261228e-03 1.069897e+00 1.034904e+00 1.008775e+00 1.419817e+00 1.463823e+00 1.832368e+00 2.369999e+00 2.393352e+00 2.006263e+00 2.088785e+00 1.797443e+00 1.904010e+00 9.341478e-04 1.013786e-01 1.482831e-01 1.858859e-01 2.757226e-01 2.709620e-01 3.869236e-01 4.828010e-01 4.881439e-01 5.237750e-01 4.881037e-01 4.705242e-01 3.766600e-01 7.609405e-05
<GCONST> 7.959796e+01
<STATE> 5
<NUMMIXES> 2
<MIXTURE> 1 5.609596e-01
<MEAN> 39
 -1.047934e+01 3.242766e+00 -4.953620e-01 7.977636e+00 5.950974e+00 9.036725e+00 7.298676e+00 9.101251e+00 3.904586e+00 4.820958e+00 3.952578e+00 -7.855224e-01 4.198203e-01 2.650053e+00 1.972116e+00 -4.616455e-02 -2.509647e+00 -3.345489e+00 -4.010765e+00 -3.213740e+00 -1.765702e+00 -6.071609e-01 1.436979e-01 7.473304e-01 1.448323e+00 8.669294e-02 7.473654e-01 4.121723e-01 -2.562995e-01 -9.762093e-01 -9.795600e-01 -1.188111e+00 -7.244848e-01 -6.117045e-01 -3.196890e-01 -2.177942e-01 -2.471748e-01 3.867554e-01 3.363677e-02
<VARIANCE> 39
 1.378188e+01 2.423082e+01 1.815494e+01 1.849711e+01 2.275898e+01 2.410406e+01 2.177207e+01 2.457772e+01 3.107347e+01 2.988541e+01 4.497445e+01 3.155913e+01 1.176910e-02 9.541004e-01 7.175129e-01 1.093454e+00 1.977889e+00 2.086968e+00 2.178627e+00 2.603935e+00 3.001648e+00 4.527256e+00 3.998480e+00 3.506526e+00 2.929293e+00 1.041809e-03 1.696368e-01 1.582785e-01 2.267818e-01 2.928789e-01 4.107109e-01 4.172355e-01 5.089753e-01 5.367803e-01 6.698819e-01 6.931469e-01 7.867228e-01 8.667334e-01 9.982820e-05
<GCONST> 8.811272e+01
<MIXTURE> 2 4.390390e-01
<MEAN> 39
 -1.182236e+01 5.222572e+00 -2.686611e+00 5.160689e+00 4.395089e+00 2.916052e+00 3.215093e+00 2.812197e-01 3.073054e+00 -1.389040e+00 1.287660e+00 1.140722e+00 5.541314e-01 3.837354e+00 3.270283e+00 2.197309e+00 -1.832832e+00 -2.371466e+00 -2.801858e+00 -3.385340e+00 -1.960759e+00 -9.565210e-01 -1.621937e+00 -1.053179e+00 -1.945817e+00 9.673277e-02 5.111107e-01 1.745971e-01 7.938003e-02 -7.551715e-01 -6.878118e-01 -4.304818e-01 -6.773121e-01 1.150717e-01 9.201510e-02 -8.676283e-02 2.483767e-01 -2.598258e-01 1.953905e-02
<VARIANCE> 39
 1.541672e+01 3.040917e+01 1.663152e+01 1.809778e+01 1.588516e+01 2.567012e+01 2.745534e+01 3.085938e+01 3.293057e+01 2.519100e+01 2.738999e+01 2.369562e+01 1.142081e-02 5.730615e-01 8.927376e-01 1.138090e+00 1.651606e+00 1.522074e+00 2.284353e+00 2.316315e+00 2.313015e+00 2.491427e+00 2.409098e+00 2.338488e+00 1.634152e+00 6.212899e-04 1.784322e-01 1.937024e-01 2.340204e-01 2.489563e-01 3.069110e-01 4.115766e-01 4.909199e-01 4.977247e-01 5.185576e-01 4.865651e-01 5.409058e-01 4.035670e-01 9.698699e-05
<GCONST> 8.181995e+01
<STATE> 6
<NUMMIXES> 2
<MIXTURE> 1 5.055827e-01
<MEAN> 39
 -3.936646e+00 1.176920e+01 1.225215e+00 1.709986e+00 -1.524998e+00 -4.043804e+00 -3.592171e+00 -3.909133e+00 1.216368e+00 -4.051862e+00 -1.264679e+00 -2.560218e+00 7.586824e-01 3.752431e+00 2.850038e+00 2.022676e+00 -2.816188e+00 -2.711019e+00 -2.759537e+00 -3.801484e+00 -1.248324e+00 -5.317875e-01 -1.596026e+00 -2.404049e-01 -1.884178e+00 1.103052e-01 -5.849800e-01 -6.394957e-01 -4.623602e-01 -3.155006e-01 4.870413e-02 3.200217e-01 1.685718e-01 5.940943e-01 2.954252e-01 2.484645e-01 6.184524e-01 3.018499e-01 -6.805358e-03
<VARIANCE> 39
 1.291796e+01 2.731911e+01 1.015762e+01 1.577107e+01 1.584179e+01 1.900871e+01 2.005197e+01 2.153505e+01 2.047721e+01 1.639938e+01 1.979862e+01 1.720007e+01 5.479874e-03 8.891775e-01 1.159315e+00 1.352755e+00 1.437672e+00 1.706206e+00 2.561182e+00 2.756967e+00 2.873175e+00 2.677234e+00 3.183814e+00 3.345892e+00 1.844316e+00 4.206085e-04 1.452544e-01 1.414537e-01 1.498197e-01 2.407457e-01 2.532370e-01 3.104171e-01 3.568501e-01 3.675843e-01 3.675720e-01 3.433680e-01 3.507715e-01 2.713481e-01 8.430945e-05
<GCONST> 7.567982e+01
<MIXTURE> 2 4.944179e-01
<MEAN> 39
 -4.280881e+00 8.832541e+00 1.068758e+00 3.525710e+00 -2.189774e+00 -1.788497e+00 -2.096549e+00 3.038293e+00 2.300771e+00 6.041355e+00 7.655237e+00 4.374258e+00 6.947652e-01 3.498102e+00 2.231374e+00 -8.015898e-01 -3.928559e+00 -4.384705e+00 -5.239177e+00 -3.499954e+00 -2.345277e+00 -1.123131e+00 -4.739934e-01 -2.879245e-01 1.601524e+00 1.268705e-01 -2.802780e-01 -2.630991e-01 -4.183498e-01 -1.475128e-01 3.498351e-01 3.432661e-01 5.706924e-01 1.228634e-01 -2.669837e-01 -4.421617e-01 -8.089563e-01 -2.952205e-01 4.394668e-04
<VARIANCE> 39
 1.522062e+01 2.574692e+01 1.615110e+01 2.185774e+01 3.154990e+01 2.549859e+01 2.588952e+01 3.207715e+01 2.686642e+01 3.758365e+01 3.325692e+01 2.824237e+01 9.352135e-03 8.976712e-01 8.731867e-01 1.634931e+00 1.824232e+00 1.542965e+00 1.838073e+00 2.631711e+00 3.124476e+00 5.215371e+00 5.538695e+00 6.497206e+00 7.239820e+00 7.360385e-04 1.864371e-01 1.627671e-01 2.051477e-01 3.558030e-01 4.833057e-01 4.407164e-01 4.556716e-01 6.776467e-01 5.486445e-01 5.543828e-01 5.674837e-01 7.287121e-01 9.649722e-05
<GCONST> 8.986266e+01
<STATE> 7
<NUMMIXES> 2
<MIXTURE> 1 4.597213e-01
<MEAN> 39
 1.413356e+00 1.071327e+01 -3.429395e+00 -5.146070e+00 -9.065159e+00 -8.304029e+00 -4.220477e+00 2.002038e+00 1.949301e+00 6.340242e+00 5.854338e+00 6.718450e+00 8.337603e-01 1.838820e+00 1.248309e+00 -1.407623e+00 -2.985435e+00 -2.386467e+00 -3.182066e+00 -1.728649e+00 -1.843697e+00 -1.445475e+00 -1.063267e+00 -1.098338e+00 1.404998e+00 9.684945e-02 -1.117148e+00 -5.944878e-01 2.636842e-02 1.008560e+00 1.367547e+00 1.399776e+00 1.071116e+00 3.793260e-01 -2.423485e-01 -5.228111e-01 -7.385526e-01 -7.278010e-01 -2.814146e-02
<VARIANCE> 39
 8.088458e+00 2.601336e+01 1.489212e+01 1.547900e+01 1.804684e+01 1.844974e+01 2.349582e+01 3.161679e+01 3.180245e+01 4.821089e+01 3.438969e+01 3.545963e+01 5.238816e-03 1.941983e+00 1.378582e+00 1.620594e+00 2.313274e+00 3.285805e+00 2.979517e+00 2.381041e+00 3.029535e+00 3.364563e+00 5.462409e+00 7.841251e+00 9.607080e+00 9.915945e-04 9.647166e-02 1.163926e-01 1.932734e-01 3.113230e-01 2.857753e-01 2.922480e-01 4.303050e-01 6.075823e-01 7.388525e-01 6.196159e-01 4.876798e-01 4.980530e-01 8.341917e-05
<GCONST> 8.824296e+01
<MIXTURE> 2 5.402783e-01
<MEAN> 39
 -3.023745e-01 1.233993e+01 1.603896e+00 -3.951122e+00 -5.318992e+00 -6.217351e+00 -7.749995e+00 -2.429418e+00 2.069255e+00 -4.334687e+00 1.015360e+00 -4.023283e+00 8.412873e-01 2.132785e+00 1.386455e+00 6.528550e-01 -2.877258e+00 -2.245048e+00 -2.160965e+00 -2.728864e+00 -2.312679e-01 -1.933237e-01 -8.884819e-01 1.635514e-01 -1.218825e+00 7.774165e-02 -1.148536e+00 -8.456098e-01 -6.060039e-01 4.689132e-01 7.360892e-01 8.152463e-01 9.458289e-01 6.013439e-01 2.076493e-01 4.186718e-01 3.779719e-01 5.181546e-01 -2.454080e-02
<VARIANCE> 39
